2556 100
secondly -0.0951827 0.06520874 -0.07226312 0.004806544 0.038382985 -0.0020667317 -0.030950125 -0.07879293 0.040507507 0.027384782 -0.032531887 0.057020914 0.06669163 0.018260682 0.05212171 -0.03166979 0.0026081563 -0.055449996 -0.09139065 0.0026085689 -0.053458404 -0.029598614 -0.07131054 -0.019913292 0.026749087 -0.011270525 0.012403046 0.06607472 -0.0350397 -0.02217242 -0.003211107 -0.008575619 -0.014878926 -0.057019282 0.029430617 -0.07538542 0.04357318 0.015954284 0.029643873 -0.082564004 0.05157408 -0.018975029 -0.04054713 -0.0016213902 -0.026095912 0.0007131144 -0.01610304 -0.061187524 -0.029116925 0.05805887 -0.0267494 0.052068222 0.014067455 0.06445013 0.0286405 0.014453029 -0.0033715745 -0.027460987 0.03906946 -0.061396666 0.011071707 0.059758272 -0.029868415 0.05404242 0.045260765 -0.06849718 0.021319622 -0.030648082 -0.059896544 -0.025141127 0.06237655 -0.06758937 0.019029658 -0.067736536 -0.03755543 -0.07925144 -0.053715903 -0.03822582 0.009416532 -0.046005268 -0.05975685 0.03132769 0.023728823 0.009448306 -0.08393906 0.03267679 -0.060227014 -0.0175203 -0.045313165 0.003722785 0.0108681 -0.0035815327 -0.046630092 -0.0040036775 -0.023471175 0.053346414 0.007107433 0.0019265319 -0.010195517 0.008964763
pardon -0.09678891 0.005812188 -0.08623983 -0.0139659885 0.11538816 -0.05750542 0.021922152 -0.049887702 0.14249803 -0.030185552 0.028353458 -0.050676733 -0.07125936 0.09823027 -0.01363011 -0.06493842 -0.10857757 -0.015481426 -0.012408148 0.11171522 -0.0031528804 0.107776135 -0.06625296 0.051382523 0.02644904 -0.17375539 -0.048433635 0.02014269 0.08181067 0.13884524 0.093029745 0.043082595 -0.052067045 -0.15483534 0.09118304 -0.109211 0.03374806 0.030612396 0.059856165 0.030273717 0.1081519 0.03831726 -0.06326482 0.0411495 -0.078025445 0.15944108 0.0034442712 0.00818909 -0.047048826 0.092564754 -0.025189746 0.02480854 0.17838527 -0.00094253593 0.19977638 0.060570452 -0.05187105 -0.14604855 0.111485094 -0.14012514 0.0321061 0.024167875 -0.0020526024 0.13036226 -0.014226482 -0.011644941 -0.05396297 -0.051291075 -0.028932849 -0.011969569 0.092464246 -0.026120044 0.010838577 -0.14353041 -0.011839781 -0.020910118 -0.08093185 0.06680546 -0.078870624 -0.03859426 -0.0023601186 0.092802785 0.03962178 -0.18046676 -0.13036528 -0.023359137 -0.08563462 0.10146423 0.001838191 0.11583546 -0.027787287 -0.058647346 -0.10537674 -0.031036597 -0.04435997 0.14553392 0.10938356 -0.06817352 0.11090295 0.038557857
saves -0.058205172 0.007210392 0.019449966 -0.038460303 -0.05255774 -0.021345625 0.019236187 -0.032386787 -0.03540799 0.027247222 0.01648855 0.07831858 0.040519666 0.05787447 0.04219563 0.03129945 -0.009676471 -0.0523297 0.004115992 -0.014688371 0.010786021 0.059846282 -0.01946805 0.029541077 0.023184609 0.026211549 0.011720263 0.0029704391 -0.038971215 0.035899226 -0.0014105446 0.039075512 0.0025534336 -0.029950825 -0.01203734 -0.070591375 0.0062199673 0.03726156 0.010111554 -0.027867867 -0.00079561584 -0.073295735 -0.051147193 0.037682354 0.03564115 0.06186846 -0.024784897 0.00014433876 0.03224187 0.08179228 0.003512069 0.03280842 0.007960481 -0.021404654 -0.029626219 0.04212431 0.0145648 -0.015784655 0.012580694 -0.049562734 0.013692794 0.028880227 0.010394205 -0.020289056 0.06714377 -0.026307458 -0.009937494 -0.02165495 -0.0022003665 0.058917727 0.0058186958 -0.06773557 0.061771248 -0.014464725 -0.086505815 -0.020904234 0.018998284 0.02163862 -0.035375033 -0.076399565 -0.0038687796 -0.017616922 0.069026336 -0.0045119678 -0.07329295 -0.022372188 -0.019135198 -0.021334868 0.004323004 0.014902765 -0.03782475 -0.021123156 -0.035199117 -0.019508254 0.020438315 0.045805942 0.008779682 0.019236209 0.010152332 -0.014030606
knelt -0.035804197 -0.004401808 0.045853354 -0.006315336 0.04572328 0.00013109378 -0.018335754 0.006963922 -0.011926541 -0.027425468 0.046872098 0.049227398 0.015019564 0.042050038 0.054471727 0.0145489415 -0.008267156 0.019867439 -0.057814196 -0.00062586734 0.021110795 -0.032068964 -0.011563041 0.04170862 0.008239344 -0.011351711 -0.014777097 -0.0043729916 0.042462587 0.023372626 0.06533654 0.03679854 -0.0036154364 0.013189715 -0.040671315 -0.041995153 -0.0625138 0.008218149 -0.0076496843 -0.0257257 0.06722761 -0.07279543 -0.057197694 0.0805306 -0.009849535 -0.0033055455 -0.060232077 -0.047172517 -0.013396532 0.020868197 0.00017897307 0.011118741 0.0032666381 0.048190508 0.06262271 0.027861288 -0.017133413 0.023404995 0.03878001 -0.03889679 0.021623604 0.03624834 -0.06613388 0.047017623 0.051699802 -0.011670397 -0.019520424 -0.075300634 -0.038035154 -0.006868271 0.047585763 -0.077681676 0.041228727 -0.033209994 -0.031038867 -0.049208846 -0.054739658 -0.08196591 0.02195145 -0.020361213 0.0044511063 0.0050475923 0.055280425 0.06323763 0.0025394158 1.8631225e-05 -0.0022034834 0.021605302 -0.039841518 0.055107344 -0.040187955 0.049570963 0.011290986 -0.04012898 0.064802006 0.047699563 0.067532726 -0.04166514 -0.014243525 -0.013810734
four -0.0705585 0.052381456 -0.08809784 0.053668577 0.020355854 -0.102838665 -8.675453e-05 0.005626162 0.04162216 -0.0049034436 0.008593371 0.0030424767 0.0016890564 0.014404365 0.07623763 -0.0023062413 -0.032299086 -0.04581135 -0.05555522 -0.029471584 0.07348819 0.093580596 -0.016792325 -0.021962596 8.32408e-05 -0.032886796 0.017175805 -0.06390638 -0.07515735 0.095304824 -0.0166287 -0.0037427812 -0.08777109 0.04299424 0.01360231 -0.009590991 0.059229 -0.009471749 0.07250245 -0.051113836 0.036874548 -0.080118835 -0.038137864 -0.08287969 -0.02603089 -0.00075352594 -0.059249993 -0.050495032 0.0064182323 0.0550564 -0.10277626 0.08006863 -0.0063986084 0.13219458 0.015651507 0.10765854 -0.026610544 0.008423082 0.071016535 -0.02134334 -0.07033751 0.11713592 -0.09403604 -0.0051149963 0.053564 -0.017743489 -0.08160637 0.014061742 -0.05668816 0.014942019 0.046697773 -0.023521997 0.016330814 0.0027778442 -0.03653887 0.003839424 -0.0058896923 -0.045067962 -0.04374622 -0.030187786 -0.06765841 0.039618675 -0.017853383 0.12373686 -0.005897493 -0.072580434 -0.020704074 -0.056213565 -0.0859694 -0.04283845 -0.028596139 0.06960537 -0.0024336101 -0.009050412 -0.07215301 0.0910404 -0.012843764 0.032721423 -0.031460833 0.019404953
sleep -0.06889787 0.021852968 -0.084690556 0.13947903 -0.078189395 -0.070588656 0.002789623 -0.0051096366 0.10157335 0.0058094193 0.09666777 0.035062812 -0.0168508 0.11416763 0.087017246 -0.118251815 -0.026444437 -0.16139202 -0.1720447 -0.072259136 -0.0067408974 0.07491854 -0.09070189 0.18659087 0.070149295 -0.14175487 -0.13213022 0.12395271 -0.050389472 0.056647155 0.0445499 0.15330875 -0.111137986 -0.0969115 0.06840716 -0.10362856 0.096325226 0.05809659 0.08208056 -0.14749785 0.10121178 -0.06987431 -0.028480208 0.061019853 -0.12817684 0.07885207 -0.06096206 -0.1737984 -0.012319067 0.08956893 -0.10306877 0.17489767 0.07289238 -0.00042805885 0.07788279 0.07837055 -0.12526809 0.02308799 0.007869525 -0.14307225 -0.086901255 0.19146317 -0.21765983 0.018510628 0.019241681 -0.19657661 -0.080992125 -0.07843419 -0.119399466 -0.052026335 0.11085829 -0.13536645 0.072649375 -0.10263002 -0.13555776 -0.08999675 -0.12218766 -0.03589619 -0.11168568 -0.10477929 -0.08417979 0.080331385 0.1252546 0.0057369997 -0.15004891 -0.06057661 -0.11631546 0.033858445 -0.10530079 0.05986312 -0.099497244 0.07852362 -0.10902825 -0.042172894 -0.035889238 0.080013886 0.065504074 -0.08265619 0.090681426 -0.013789218
hanging -0.07502852 0.037235573 0.026885996 0.04616798 0.0072582597 -0.008820301 -0.007697405 -0.00025215582 -0.017179163 -0.04621437 0.047325637 0.030015264 0.003008998 -0.027053319 0.073189646 0.02779612 -0.084395096 -0.053639118 -0.033473976 -0.091605 0.012921066 -0.08796859 -0.07720186 0.050458387 0.018830266 -0.058222245 -0.047092237 0.03621016 0.01909659 0.004599103 -0.0066418094 0.10466593 -0.023869935 0.037004154 0.023469638 -0.033194456 0.0031416304 0.01573144 0.081854895 0.017382909 0.0038669491 -0.060439225 0.019878443 0.020732256 -0.029160915 0.040706575 -0.042591713 -0.09761847 -0.02439139 -0.0087167425 -0.047866844 0.023664745 0.074538134 -0.036360852 -0.10161752 0.0788557 -0.061167534 0.041193645 -0.0029488252 -0.067689545 -0.018818818 0.08891154 -0.05439176 -0.00011725648 0.053816803 -0.033325896 -0.026389297 -1.3655226e-05 -0.011692257 0.012068767 -0.004070233 -0.06200534 -0.007330968 -0.020698627 -0.08412076 -0.019189857 -0.015271186 0.0045371666 -0.010131787 0.018324515 -0.0806896 -0.0029322521 0.062627606 0.018567225 -0.06208679 0.07290378 -0.085213915 0.07751764 -0.06458188 0.013402874 -0.079779364 0.077323645 -0.08121955 -0.07754354 0.008452106 0.011198222 0.051375512 0.002375157 0.023757571 0.024102133
ringlets -0.06728837 0.05255807 0.0046889577 0.08198723 0.008000134 -0.048879944 0.032256793 -0.08149777 0.0051130755 -0.052746933 0.052566893 0.016439337 0.10226181 0.08042606 0.0018720927 0.008230865 -0.069465175 -0.0864322 -0.06674219 -0.046896573 0.01977589 -0.07317154 -0.055290066 0.050238263 0.012120311 -0.024015559 0.010312248 0.09869084 -0.0079645235 0.05071784 0.020433405 0.02069655 -0.008595126 -0.09160428 -0.047027428 -0.08655886 -0.024076767 -0.031648297 0.05301457 -0.025896829 0.035185333 -0.0899395 -0.08865079 0.06780803 -0.08495965 0.019076057 -0.044102397 -0.072234556 -0.0051519345 0.0026799173 -0.075503536 0.042120244 0.020999838 -0.011987314 -0.0016190296 0.07561458 -0.046024393 0.009574723 0.0118457 -0.035043 0.043146856 0.059498712 -0.06934867 0.09459898 0.06271465 -0.018516751 -0.05394255 -0.07158799 -0.02664108 -0.09070976 0.026996456 -0.05587894 0.10569344 -0.073369354 -0.011101716 -0.041717447 -0.078814566 -0.02263008 0.01351361 -0.06427265 -0.043167375 -0.02773454 0.058758974 0.07291874 -0.0010518618 0.03864378 -0.06662352 0.078528576 -0.015507816 0.041935697 -0.081170514 -0.027863719 -0.06882533 -0.04475117 0.052413084 0.027095005 0.031238157 0.012507011 0.04851834 0.020771926
oldest -0.07023188 0.015957914 -0.016347622 -0.013007504 -0.054476134 -0.045940712 0.014475955 -0.053187553 0.042584423 -0.034436017 0.04974981 0.04186759 0.0038669677 0.036787108 0.06134821 0.004954285 -0.00779186 -0.03880615 0.011484209 -0.003876978 -0.016611533 -0.07924113 0.0059136325 0.02901294 0.021212334 -0.04134649 -0.01868326 0.06731918 0.022044912 0.023443645 0.05599619 0.019646795 -0.052378368 -0.041008815 -0.065926686 -0.023007348 -0.039016217 -0.06552696 0.002285374 0.0207298 -0.0005670636 -0.033565108 -0.07835142 -0.009764241 0.010419952 0.07578747 -0.075809374 -0.032055434 -0.0074775782 -0.00032143705 0.042722557 -0.0036006696 0.030775374 0.0019138758 -0.008551357 0.022701845 -0.08117401 0.022580283 0.024679419 -0.051946457 0.03469304 0.07527771 -0.049933027 0.04430184 0.007262034 -0.034077086 -0.04272116 0.028794892 -0.023083095 -0.012715259 0.011208827 0.02482354 0.008406632 -0.03630097 0.006971745 0.012236113 -0.04567958 -0.024040867 0.008124898 -0.060557637 -0.005605409 -0.05734945 -0.010023119 -0.0029164269 -0.055005085 0.03547942 -0.055772346 0.049166534 -0.014121154 0.013881834 -0.0108210975 -0.009327841 -0.010799892 -0.019403778 0.049637876 0.0461601 0.020333504 -0.08484804 -0.00038822333 0.01791162
hate -0.079297595 -0.0067905304 0.0025558174 0.0601276 -0.07156607 -0.050428655 -0.029477669 -0.07298966 0.08500743 -0.043820653 0.06463896 0.01539711 0.0398076 0.08337513 0.031622708 0.031277932 -0.05416048 -0.07672743 -0.070959434 -0.06587069 0.015293278 0.04705986 -0.103635184 0.030614078 0.036569793 -0.037317507 -0.02069107 0.04914146 0.037601616 0.066951945 0.031963404 0.079039134 -0.003243893 -0.05248113 0.006819216 -0.030915044 -0.010615345 -0.07015505 0.0845756 -0.024272714 0.07335259 -0.0039186925 -0.10324538 -0.027721852 0.0020042758 -0.00083065894 -0.038320437 -0.03116733 -0.046763636 0.07544462 -0.03670655 0.042503387 0.08292754 -0.0014722906 0.0770888 0.05108113 -0.105771594 0.038110238 0.03653005 -0.05119712 -0.099156715 0.080391504 -0.07369321 0.021293784 0.060940716 -0.047669172 -0.040464073 -0.01206883 -0.107753366 -0.032480028 0.113746956 -0.06508936 0.04419419 -0.07288677 -0.0072674733 -0.112964295 -0.041020688 -0.09020562 -0.06673422 0.00403305 -0.079138815 0.097012445 0.05123426 -0.0026827212 -0.01445661 -0.007633274 -0.020022027 0.07351117 -0.027631065 0.063658014 -0.05799447 0.04141094 -0.10316087 0.021464452 -0.07507292 0.07946444 0.049065318 -0.01900243 0.022284295 -0.013061135
assembled -0.011197394 0.041724194 0.021923836 -0.02672625 0.033699732 -0.048934106 0.018118592 -0.040238865 -0.031487886 0.0010853324 0.039676484 0.0057631284 0.09931368 0.040410034 0.075600296 0.024509236 -0.048510287 -0.017001582 -0.06776642 -0.06677178 -0.019802272 -0.002208004 0.023078568 0.04463483 0.029824713 -0.031310134 -0.0050347936 0.060817204 -0.016743476 0.05599031 0.0071670734 0.10257953 -0.062496226 -0.05455387 -0.033976167 -0.049111843 -0.040084433 -0.02233499 0.09128723 -0.04261018 0.086727284 -0.039820287 -0.07049364 0.026217338 -0.041068234 0.030604208 -0.0634892 -0.07223773 -0.06639099 0.012261484 0.014880638 0.05711698 0.054890648 0.03312834 -0.021442235 -0.0031167632 -0.05849305 0.028148504 0.05483155 -0.07494412 0.06361101 0.07784055 -0.050734058 0.03957508 0.07659574 -0.061328422 -0.08879094 -0.0066047157 -0.016362974 -0.06354523 0.008762954 -0.054362245 -0.0054202997 -0.06325251 -0.09585982 0.023877218 -0.026302041 -0.04778984 -0.014662369 -0.09856143 -0.09823038 0.01587979 0.01729369 0.08625553 0.0015438801 0.019851051 -0.017058454 0.026920093 -0.07018294 0.02580131 -0.03455478 0.023428857 -0.022599354 -0.018099042 0.061631214 0.060783565 0.0046271165 -0.03773708 0.08319531 0.09311882
forget -0.0641364 0.07989656 -0.08931778 0.036737714 -0.052247576 -0.014741149 0.041109137 -0.063265085 0.021639641 -0.01192496 0.05451686 -0.04624397 -0.004560019 0.08173869 0.0024222664 -0.065257594 -0.053836018 -0.05672501 -0.09233601 -0.05360085 -0.029105218 0.07239308 -0.022619877 0.0124309715 0.020060996 -0.023315718 -0.007990883 0.005301324 -0.001102969 0.06975594 0.01816177 0.054010354 -0.007358912 0.007846247 0.08082979 -0.08807969 0.031226102 -0.028365128 0.066593215 -0.10773111 0.02748643 -0.0053287065 -0.061157163 0.030136067 -0.03222098 0.08080962 -0.058435816 -0.009585025 -0.0012317738 0.061996542 -0.030734593 -0.012718374 0.016160356 0.040648106 0.0145887965 0.024792787 -0.06840574 -0.05226439 0.05623607 -0.080254614 -0.075377166 0.04838855 -0.03196828 0.10647893 0.0067963493 -0.065235905 -0.07400356 -0.066465296 -0.04135225 -0.029356798 0.059639316 -0.08454268 0.021580854 -0.0523885 -0.09630281 -0.0032957909 -0.0379804 -0.0026254493 -0.015459059 -0.087231204 -0.06462325 0.09482456 0.0010905891 0.04097269 -0.045065444 -0.051086582 -0.105075024 -0.005505719 0.0025368892 -0.031391762 -0.026833981 0.031601988 -0.018466055 -0.030994738 -0.057983354 0.07612376 0.07255387 -0.004790619 -0.0005065226 0.025388034
whose -0.089410454 0.098011784 0.020976502 0.01527633 0.028211463 -0.019911189 -0.01646236 -0.04468485 0.038773544 -0.074224055 0.022705778 0.099735014 0.055239692 -0.005276052 0.018739246 -0.069599524 -0.05987746 0.0397659 0.021120023 -0.0041585676 -0.054711286 -0.049058612 -0.0951756 0.036503103 0.0864785 -0.010026809 -0.04565365 -0.00013288914 0.04489383 0.01527223 0.03812457 -0.01613591 -0.08482 -0.039015494 0.018002488 -0.07026661 -0.03894487 -0.017599192 0.08599141 -0.007189991 0.02077562 0.010850865 -0.056166794 0.05852214 0.016936276 0.01967476 0.009575408 -0.0048379395 -0.029891513 -0.025018286 0.009910835 0.024021495 0.0013082783 0.029755153 0.07041142 0.01863986 -0.024970477 0.023296861 -0.045334943 -0.07816205 0.057892777 0.03083352 -0.024573188 0.03674123 0.039888825 -0.074243516 -0.07837264 -0.030497659 -0.040434968 0.0045959204 0.047317676 0.010396432 0.077533014 -0.038345348 -0.046264037 -0.038158704 0.0069257403 -0.05122537 -0.026506674 -0.01414518 -0.055542227 0.020070365 -0.04316268 -0.04444051 -0.0692861 0.05075702 -0.0039067282 0.058442175 -0.008563649 0.027168479 -0.036857456 -0.02000997 -0.025581084 -0.08955491 0.036633924 0.07001643 0.0061996393 -0.0028034183 0.050347105 0.021234958
lory -0.15462193 0.099919364 0.03357778 -0.043635912 -0.055424396 -0.045522816 -0.049815908 -0.079867885 -0.016164508 -0.028230157 0.103380516 0.052668996 0.03438832 0.10239824 0.09701046 -0.043265767 -0.08106763 0.040269427 -0.107723914 -0.10046373 -0.046501312 -0.09430166 -0.044902574 0.13114014 0.12248459 -0.1101758 -0.09665582 0.13903326 0.090427004 0.08741026 0.056508247 0.012504167 -0.04060152 -0.12430459 -0.032107648 -0.10942729 0.038091224 -0.058809817 0.09982672 -0.06427716 0.12734406 -0.07672202 -0.09973698 0.12613377 0.026126519 0.13783315 -0.062506974 -0.00024264399 -0.074762784 0.032343157 -0.0070610847 0.06393319 0.11467635 -0.056294534 0.03137906 0.1169521 -0.063817665 -0.004224375 -0.027871534 -0.12285284 0.0662422 0.061021846 -0.13892967 0.044517525 0.111133575 -0.03833429 -0.12503639 -0.11702679 -0.14997643 -0.10463286 0.1138792 -0.038458474 0.08369978 -0.12773599 -0.08227171 -0.05568919 -0.15286411 -0.037243944 -0.1334798 -0.18723544 -0.08507033 0.02467097 0.12077937 -0.017024636 -0.14377183 0.11875152 -0.09209193 0.043502036 -0.081636414 0.11516934 -0.15420286 0.0049163164 -0.12013821 -0.036809713 0.16999164 0.15105578 0.12252927 -0.050005954 0.12694602 0.018598426
swam -0.05676009 0.09500969 -0.015765814 0.11835495 0.0841303 -0.10672803 0.006175784 -0.083266646 -0.047105208 -0.111181565 0.04961682 -0.028878506 0.115284055 0.08967633 0.056832153 0.047451247 0.0028506005 -0.07117269 -0.07894928 -0.05032592 0.037955835 -0.023851417 -0.07869353 0.10042677 0.08957777 -0.06946768 0.08725913 0.104650296 -0.04225114 0.034163006 0.06534874 0.08910724 -0.042369224 -0.0892121 0.049677815 -0.1645802 -0.02944286 0.01824333 0.062164016 -0.09112632 0.13743898 -0.11969574 -0.082306065 0.050389323 -0.110359885 0.08251599 -0.035407092 -0.07722835 0.025224973 0.046413753 -0.018300982 0.16554484 0.04178755 0.14699543 0.09612516 0.048110317 -0.050167814 -0.026410105 -0.008219465 -0.05324015 0.04169443 0.054451905 -0.069881216 0.08444126 0.096850835 -0.015047902 -0.08341777 -0.18439303 -0.020207956 -0.085163735 0.06915853 -0.10031155 0.14006537 -0.013049038 -0.120359465 -0.08669787 -0.07385889 -0.11793943 -0.11203347 -0.12619138 -0.09283367 0.022892797 0.08062435 0.0918232 -0.096252754 0.042225555 -0.14511907 0.019479193 -0.12945585 -0.031879168 -0.080621906 0.06908472 -0.066955835 -0.07499026 0.17172651 0.15036568 0.0026022801 -0.07800376 0.07055481 0.07428947
blacking -0.02706366 -0.023968546 0.034943055 0.04547321 -0.059179492 -0.016885357 0.014078817 0.020179173 -0.002967196 -0.031388346 0.006523937 -0.02686793 -0.030067762 -0.02439367 0.052841518 0.024533583 -0.06833156 0.0182635 -0.018839931 0.025709955 -0.046260465 -0.007962262 0.022821147 0.059570044 0.050228607 -0.07501843 -0.029158967 -0.014659034 0.029027134 -0.006224767 0.061196584 0.048482135 0.0069807246 -0.035449337 0.0026253758 -0.012745144 -0.017249966 0.004849128 0.06170768 -0.010795119 0.011391102 -0.05064681 0.007332934 -0.058027048 -0.013090029 0.036695927 -0.02339827 -0.053828377 -0.019967332 0.047279295 0.00209837 -0.006070428 0.031506587 0.016011825 0.06307905 0.036023244 -0.013830201 -0.0011975813 0.0458216 0.01619387 0.0021614362 0.04535804 -0.0045383465 -0.0003044257 0.009468825 0.00027937625 -0.044229355 0.03341457 -0.011229672 -0.030957554 0.058720738 -0.057851724 -0.0036862537 -0.003896212 -0.020499608 -0.0047171395 -0.009233814 -0.011337792 -0.0036617543 -0.033326052 0.020799072 -0.0074501242 0.018433766 0.025017625 -0.06568435 -0.03917445 -0.029735606 0.050584212 -0.008351905 0.040093303 -0.0049448423 -0.03383727 -0.033272803 0.011096571 -0.044772893 0.054645635 -0.016876709 -0.010602882 0.048516117 -0.0452944
presents -0.0025834725 0.06383645 -0.014837261 0.06599475 -0.041124538 -0.0052763633 -0.016974878 -0.06448832 -0.03297283 0.019795498 0.026832107 -0.006187563 0.0194872 0.05887718 0.036174987 0.046213623 -0.011902123 -0.008287233 -0.053882476 -0.02276675 0.004843412 0.04847145 0.023499612 -0.02573996 0.01637876 -0.02456484 -0.053110514 0.06977623 -0.0015050812 0.09227099 0.02515215 0.06032111 -0.03589355 -0.03485749 -0.008686335 -0.013904056 0.044067394 -0.03782776 0.02272274 -0.090080254 0.035028715 -0.06821359 -0.004449401 -0.017045924 -0.04109616 0.01975498 -0.009823013 -0.034592386 0.009588195 0.03055689 -0.054887526 0.062850736 0.03003169 0.06880912 -0.023761272 0.028557599 -0.04992066 0.00093834684 0.078568876 -0.059342008 -0.018976256 0.031139566 -0.009750138 0.058191143 0.054936647 -0.075767055 -0.049055055 -0.07433521 -0.036804944 -0.07961834 0.049648784 -0.023644298 0.06303256 -0.06012905 -0.05384213 0.012501956 -0.054289777 -0.024641464 -0.036101747 -0.050986454 -0.03122543 0.024816958 0.038635816 -0.023060909 -0.06330458 -0.015497702 -0.007707105 0.026597628 0.015967876 -0.020496966 -0.0799105 0.022391325 -0.06288007 -0.0013595471 0.061687153 0.003739624 0.025751218 -0.0726565 -0.008279325 0.0103930095
under 0.0076646945 0.10631375 -0.046777714 0.017170286 0.14593703 -0.07830479 -0.0087189535 -0.16420192 -0.056651957 -0.12964219 0.055800974 0.04591917 0.105738156 0.11320661 0.13847598 -0.09477102 0.026927685 0.0070383623 -0.02197499 -0.08341631 -0.079724014 -0.012473108 -0.003546731 0.12745379 0.10352675 -0.07466398 0.01461695 0.048459608 0.10938907 0.048572205 0.12087863 0.11505869 -0.13927989 -0.15322451 -0.07102622 -0.11018909 0.01079051 0.0885881 0.08506904 0.047471803 0.12652048 -0.00895933 -0.0028620304 0.07915231 0.07833249 0.021706201 -0.11455105 -0.100674585 0.00072833995 0.081329465 -0.012897064 -0.061486512 0.057603955 0.1045563 0.10567261 0.06339026 -0.16498351 0.08618336 -0.04967608 -0.05460682 -0.03689444 0.11265255 -0.09229707 0.022964457 0.12626229 -0.0060477722 -0.071057804 -0.06488384 -0.0719926 -0.059159018 0.11040689 -0.04232931 -0.0028021769 -0.12316575 -0.17337182 0.11140449 -0.10299774 -0.0216416 -0.059116382 -0.027069775 -0.04987782 0.033607457 -0.021348715 0.16736719 -0.037490495 0.12314264 -0.08261949 0.10240338 -0.02992906 -0.07315606 -0.06078342 -0.10434317 -0.06491095 -0.066218436 0.044173855 0.013908549 0.1265317 0.007816911 0.070334904 0.07059351
inwards -0.04925426 0.07126175 -0.041603927 -0.02452794 0.048710916 -0.062490936 0.043707423 -0.0669817 -0.0050935633 -0.028543143 0.033233527 0.0586176 0.0074062613 0.027742947 0.042138163 -0.018101107 0.001147254 -0.0072603663 0.0042545 0.0007273556 0.026933623 -0.035911966 -0.024177223 0.050218396 0.059180573 0.012368213 0.022685332 -0.00967171 0.02522261 0.061793 0.08027509 0.032738935 -0.0016723986 0.013753424 0.0413733 -0.025970982 -0.0015726623 0.06590045 0.061477035 -0.058141805 0.04120945 -0.013156789 -0.06714643 0.029016973 0.008957675 0.026254434 -0.023289612 -0.04098764 0.008270898 0.051194154 -0.017442547 0.0091273645 0.061529104 -0.009199782 0.011625197 -0.024526607 -0.006783355 -0.019033834 0.050759185 -0.052012943 0.03534843 0.063659616 -0.021601079 -0.00050311384 0.03355449 -0.03548432 -0.016422333 0.015637139 -0.048186664 -0.002872375 0.0029862854 -0.029570272 0.035111498 -0.00042425765 0.008970575 0.011386474 0.015411704 -0.013742689 0.0013146289 0.011867237 -0.007049215 0.030509457 -0.0077441395 0.010298657 -0.0010167055 0.017080422 -0.01550091 0.024810487 -0.05963737 0.02599061 -0.04833926 -0.01719048 -0.03414043 -0.06522828 0.053271495 0.0700496 0.04521083 0.02091194 -0.022008007 0.04247087
sorry 0.0031948874 0.051470425 -0.012059563 0.026129024 -0.046103198 0.0022250211 0.057394635 -0.055055182 -0.011243155 0.0036129353 0.030016383 0.034702845 -0.003958975 0.04807927 -0.03461782 -0.062971674 -0.043203063 -0.030356081 -0.031252623 -0.017956126 -0.029939936 0.021584304 -0.06500084 0.09692939 -0.019662615 -0.03332231 -0.08642099 -0.011567949 0.026287194 -0.0027998285 -0.019963516 -0.0021851994 -0.022811925 0.0051917387 0.00067581824 -0.0051282602 0.061699063 -0.008196673 0.07195637 -0.08562912 0.033605073 -0.07866395 -0.03783749 0.048282932 -0.094008125 0.048225954 -0.043669857 -0.037455358 -0.014295254 0.0053379196 -0.022444887 0.022044295 0.069838755 0.049631994 0.06654922 0.027501825 -0.030188782 -0.020406336 0.039531387 -0.027106259 0.021584896 0.026953768 -0.02111319 -0.009314204 -0.029505149 -0.018580746 -0.0028928295 0.0054007643 -0.054437313 -0.014331283 -0.004820451 0.0180003 -0.02429727 -0.06433348 -0.0030595486 -0.046935935 -0.032541357 0.0034401945 -0.0720856 -0.08094836 0.027925873 0.025387494 0.036612365 -0.017368443 -0.074819915 -0.010746967 -0.0020888299 0.039949164 -0.049218185 0.026119117 -0.058633797 0.033542883 -0.0022656135 0.0021437206 0.039670937 -0.024646366 0.050304025 -0.09718265 -0.0101348255 -0.031898923
worth -0.077945046 0.11370735 -0.108983636 0.021104276 -0.015759973 -0.018756544 -0.04503072 -0.072887346 0.013949302 0.004697837 0.09106784 0.034961175 0.05026283 0.064900726 0.0353243 -0.03804485 -0.0057253316 -0.09349907 -0.049033765 -0.019264951 0.016311375 0.034222458 0.00067109056 0.008701669 0.08195281 -0.074143104 -0.080819644 0.055542678 -0.020593977 0.10241793 0.08094181 0.05776469 -0.09243313 -0.045049705 0.06400592 -0.073405065 -0.02641445 -0.0008475656 0.03586851 -0.0008859645 0.05056471 -0.042051535 -0.059238467 0.06729777 -0.038292408 0.096530065 -0.027899774 -0.07644264 -0.09799507 0.06522498 0.0110372305 0.0066202926 0.05813571 0.053642757 0.07009943 0.0917191 -0.05722277 0.021481207 0.027408715 -0.058808863 -0.018802853 0.083003424 -0.1006566 0.06391701 0.09427204 -0.0738632 -0.08594241 -0.005025927 -0.13052328 0.020273805 0.10879045 -0.043295383 0.07444796 -0.052551392 -0.08046679 -0.038558736 -0.0045432784 -0.035906192 -0.05833272 0.039382365 -0.0015600668 0.060752388 -0.03168427 0.06014263 -0.07033872 0.05047676 -0.049333308 0.03045476 -0.013265334 0.0014432359 -0.026729327 -0.010104691 -0.06036727 -0.0060137985 -0.016425025 0.06779693 0.061638683 -0.030974844 0.03512015 0.030046508
rise -0.056858446 0.0064452034 0.04971762 -0.025744358 -0.075909995 -0.05714772 -0.016361712 -0.01756039 0.0025162133 0.058810826 0.049462635 0.018111756 0.06361849 0.006946832 0.07213587 -0.024425216 0.025241522 -0.075295605 -0.089993834 -0.060406215 -0.021514 0.014457182 -0.023727518 0.05451487 0.047381982 -0.0315506 -0.031063126 0.05459905 -0.017550398 0.08052737 0.05649308 0.08838221 -0.036520913 -0.06564104 0.043487605 -0.054126456 -0.046414584 0.014268225 0.031999175 -0.055800434 0.07025684 -0.022820426 -0.039315917 0.037298482 -0.05427055 0.072310366 -0.003217586 -0.010106866 -0.06962905 0.026098799 -0.014505735 0.029999338 0.05807517 -0.0021788492 -0.04148255 0.005347799 -0.048293162 0.015873991 0.039960384 -0.04947768 0.024511555 0.08172998 -0.028551985 0.047991246 0.036790613 -0.014018439 -0.0074356864 -0.0008834349 -0.045388218 -0.012894498 0.09943977 -0.0428839 0.03163647 0.008574087 -0.0003635943 -0.042093366 -0.026419954 -0.080204755 -0.0108224 -0.019429283 0.011776609 0.0035197227 -0.02455436 -0.021278955 -0.07696652 0.039770544 -0.0750485 0.010401749 0.008344333 0.034156322 -0.066206574 -0.01976063 -0.05810483 -0.015537858 -0.044588577 0.07024336 0.08066004 -0.031206004 0.026150094 0.024740148
every -0.0682726 -0.015253059 -0.06826262 0.059508942 -0.10786237 -0.06398387 -0.11264628 -0.04259558 0.04733087 -0.18645713 0.106825836 -0.0975488 0.0053941337 0.015638517 0.06130009 -0.003381652 0.013430684 -0.038919624 -0.03150359 -0.0816913 -0.042495254 0.03504511 -0.099530146 -0.0010760697 0.05554349 -0.013011478 -0.039227996 0.058835097 0.05058102 0.09518197 0.09227289 -0.0003657244 -0.07519861 -0.088521495 0.07954378 -0.17481372 0.07218735 0.048275545 0.08482361 -0.115624845 0.10209387 -0.021852542 0.0034341258 0.049524426 -0.021813495 -0.0020945524 -0.05412471 -0.09335128 -0.062602304 0.07355982 -0.15707935 0.13093175 0.027090235 0.13647054 0.10537712 0.13664587 -0.11960846 0.022686958 0.039430957 -0.031049507 -0.03769525 0.18971881 -0.084499024 0.02731051 0.07829429 -0.14349379 0.026393838 -0.12297428 -0.089437164 -0.117370225 0.05701688 -0.10574873 0.1080513 -0.058488294 -0.017548395 -0.09961252 -0.08520668 -0.13119805 -0.06717213 -0.06714019 -0.10250378 0.09349683 0.09964282 0.18848333 -0.09927957 -0.06378452 -0.13794124 0.12191514 -0.087212436 -0.008040416 -0.12944207 -0.009301506 -0.023198003 -0.056421198 0.06898026 0.13234572 -0.029794104 0.01530904 0.035905894 0.14024581
jack -0.07654895 0.059379075 0.0061218753 0.0042376816 -0.048739962 -0.081618786 0.04201364 -0.04708604 -0.024120854 -0.015010494 0.05210282 0.06215366 -0.0109391 0.006069964 -0.010871758 -0.044223655 -0.008788083 -0.0640183 -0.051140156 -0.033449072 0.001194505 -0.054275133 -0.034298275 0.08030703 0.06406035 -0.06574497 -0.009474631 0.06491242 0.04416332 0.10712825 0.09361725 0.012129126 -0.06625669 -0.055563904 -0.02768266 -0.050374925 -0.047171082 -0.022215005 0.034100052 -0.053461365 0.09234224 -0.020854548 -0.027983194 0.0078111715 -0.045462944 0.015832087 -0.08752194 -0.026251128 0.0010147447 0.0010376862 -0.047302257 0.079320125 0.095636494 -0.02493016 -0.011118921 0.07474776 -0.038941618 -0.0134214265 0.019957302 -0.0469779 0.011478391 0.05880989 -0.059255455 0.08830154 0.037991814 -0.014123991 -0.08570585 -0.008679509 -0.010992245 -0.034712642 0.060064174 -0.08429372 0.057101812 -0.05100828 -0.052804977 0.00074215437 -0.023481023 0.011084358 -0.0710722 -0.059695177 0.003058378 0.0069727562 0.008077571 -0.031263966 -0.09119388 0.028652783 -0.005535819 0.08118191 -0.037677623 0.08423331 -0.050593905 0.034126025 -0.016779106 -0.012899739 -0.0018353409 0.039273627 0.045738123 0.014010663 -0.00013471313 0.05450713
em 0.016134813 0.012777037 -0.029330052 0.0019391035 -0.03465861 -0.06420747 -0.01794849 -0.021844555 -0.008424553 -0.012234394 0.048286434 0.096294664 0.01741671 0.021597276 0.042742245 0.0131331105 -0.009360125 -0.053471256 -0.080526 -0.10767342 -0.017955242 0.024525218 -0.081824005 0.04515162 0.07605488 -0.036932856 -0.07405818 0.04278895 0.052434437 0.072926186 0.03995359 0.060391206 -0.06062495 -0.0489378 0.023324223 -0.010507626 0.0116474945 0.046360858 0.057933137 -0.023009613 0.086638555 -0.04363245 -0.04564771 0.033857703 -0.0115721375 0.07960587 -0.082112245 -0.09480764 -0.08836727 0.011696751 -0.115978554 0.01654144 0.04665741 -0.006649446 -0.039400745 0.08956972 -0.003493033 0.031461813 -0.032818876 -0.08067179 -0.04718627 0.058325846 -0.031902697 0.013916581 0.016450958 -0.06437486 -0.050258573 0.01588468 -0.03060324 -0.0083025 0.072544515 0.021921737 0.06374912 -0.051113132 -0.093417704 -0.022269461 -0.00809983 0.019041011 -0.044511124 -0.022469273 0.013590174 -0.028724138 0.034284428 0.06408173 0.0007253097 0.06463543 -0.07335488 0.016813036 -0.01838767 0.03156146 0.014683599 -0.03002238 -0.08582949 -0.07120804 0.044744126 0.040823247 0.03749905 0.013418995 0.06580486 0.054686062
seals -0.017185226 -0.001728564 -0.00045287306 -0.032019544 0.028262611 -0.04894204 -0.01128955 -0.024995388 -0.043364923 0.030080428 -0.018039312 -0.011444881 -0.026234658 0.033770286 -0.030994643 -0.026338529 -0.0024441178 -0.02525582 -0.013447036 0.025853079 0.03612316 -0.042066794 -0.012563304 0.02246537 -0.0141803855 0.0037488933 -0.03128822 0.0513305 0.012131217 0.0073088044 0.009669159 -0.02934749 0.019275906 0.0055024615 0.02084848 0.010323881 0.0015975002 0.029053535 -0.028943911 0.02000817 0.026845375 -0.00019948585 0.035370555 0.015176611 -0.050066512 -0.015569231 0.020472879 0.053469487 -0.009485141 -0.018457174 0.025909258 0.010788552 0.022236977 0.008601669 0.0075985384 -0.04034927 0.008105012 -0.055399906 -0.02494561 0.043009993 0.058801364 0.023820855 0.024932116 0.03648239 -0.001881591 0.027809659 -0.04439617 -0.006370304 0.051095597 0.020848965 0.023395138 -0.00077457447 -0.0023715734 -0.00065074634 -0.040010713 0.048019513 -0.008011122 0.029188491 0.013909218 -0.03486146 0.039464522 -0.018966287 -0.015227058 -0.013078463 -0.04142321 0.011729153 0.02084691 -0.021532308 -0.01374995 0.056672744 0.033800792 -0.05689705 0.0033818458 0.046770692 0.006876401 -0.018554436 0.014531519 -0.027609102 0.042963278 0.045043632
bringing -0.09535395 0.08852805 0.011547558 0.109609745 -0.04702213 -0.09910766 -0.014080721 -0.05296269 -0.02486144 -0.0665927 0.056950763 0.080959074 0.019777143 0.09762695 0.07522706 -0.046419654 -0.00078445603 -0.026836058 -0.012939389 -0.0594947 -0.036910523 -0.051553637 -0.004465993 0.02778425 0.0676127 -0.015850786 -0.08579253 0.018833967 0.017848272 0.11453413 0.0638151 0.09794885 -0.044355445 -0.039525982 -0.0126187 -0.10920805 -0.039552834 0.020678021 0.011384131 -0.09481206 0.11111748 -0.06533286 -0.07310979 0.041527398 -0.016667152 0.028897738 -0.07073825 -0.06741089 0.06688286 0.0014474394 -0.010752485 0.035742134 0.07170755 -0.034451123 0.05129468 0.0066655097 -0.0670342 0.08382128 -0.06260187 0.016040284 -0.020137813 0.042058107 -0.012802153 0.02107242 0.121492796 -0.020668214 -0.032740787 0.008040893 -0.094985045 -0.087814696 0.011785882 -0.12682907 -0.008005037 -0.008137431 -0.031028492 -0.05304494 -0.08492667 -0.016293889 -0.023887904 -0.061725922 0.00037066342 -0.058322374 0.074662074 -0.0055239573 -0.01099038 0.047207452 -0.021511575 0.04893954 -0.037129138 0.05780467 -0.11550635 -0.049000803 0.0003748263 -0.07113056 0.10635009 0.010234738 -0.0060305614 -0.038680088 0.029819073 0.04308585
school -0.13473924 0.10188748 -0.026293442 0.13350846 -0.0049922643 -0.14424905 -0.08288515 -0.14592244 -0.03053193 -0.14611062 0.19733723 0.07047513 0.14446117 0.12534094 0.14020036 -0.10393806 -0.027690966 -0.018389553 -0.05831648 -0.09890291 0.016471418 0.036013797 -0.10552098 0.10821213 0.09521847 -0.17230594 -0.09184124 0.09951563 0.10027441 0.14266014 0.09193705 0.11717773 -0.08077173 -0.20187269 0.06975415 -0.13319254 0.021140436 0.03245044 0.07566824 -0.025580889 0.15688694 -0.1125542 -0.05822598 0.06293457 -0.13469134 0.0973815 -0.21797356 -0.07954458 -0.14332485 0.024270633 -0.06787926 0.07629537 0.13335508 0.06840852 -0.024623424 0.06943025 -0.19201155 -0.034380298 -0.059414707 -0.04467899 0.048790365 0.19718514 -0.12542102 0.17467095 0.09498919 -0.047194272 -0.11706866 -0.11591926 -0.122590534 -0.10876932 0.12332956 -0.11384897 0.12238523 -0.035706174 -0.09819101 0.0462164 -0.12045215 -0.03508055 -0.11371842 -0.14774388 -0.115134254 0.030550364 0.07955189 -0.016870666 -0.092332736 0.103708886 -0.08614457 0.14357889 -0.13154405 0.068240516 -0.12228219 -0.041405816 -0.10614157 -0.096318394 0.16864964 0.1388341 0.06708812 -0.025463797 0.13014583 0.051291954
prize -0.056053605 0.02904135 0.012346161 0.046663325 0.020929692 -0.049088284 0.040542755 -0.029774576 -0.0091850385 0.056081213 0.009947474 0.035141803 0.0011701955 0.04494381 0.019216998 0.008188596 0.006582731 -0.04344225 -0.029555172 -0.00540471 -0.0054630507 -0.021307206 0.035039354 -0.0036108324 0.03279222 -0.03988695 -0.049478497 0.0009006014 0.047552828 0.020448785 0.045713075 -0.008404968 -0.06953359 -0.054441642 -0.03312304 -0.016330604 -0.043019623 -0.020414151 0.05621354 -0.104345456 0.060720216 -0.07797914 -0.042574648 0.008827534 -0.06115254 0.018930087 -0.031525366 -0.0088083055 -0.039174397 0.064757414 -0.08037164 0.03281141 0.046075772 0.03659125 0.02441961 0.07891012 -0.07975486 -0.05939399 0.029248396 -0.042939797 0.027721519 0.0057785907 -0.05849535 0.06903009 0.006881272 -0.10722228 -0.055738837 0.014783219 -0.094582394 0.022768807 0.051009938 -0.03709057 0.06106479 -0.08336202 -0.06772483 -0.0852725 -0.08954245 -0.07190091 -0.001405285 -0.06940747 -0.060563385 0.045817632 0.04556376 -0.022081476 -0.020973982 0.042578626 -0.08687535 9.230454e-06 -0.0488926 -0.0077146646 -0.08459658 0.045250032 -0.03474169 -0.042123202 -0.04989299 -0.009727575 -0.010643948 -0.054131556 0.0629115 -0.02719823
wooden -0.037854556 -0.030943641 -0.021242986 -0.016913518 -0.06060435 -0.02825148 -0.04188454 -0.052527882 -0.034308873 -0.0447409 0.037826065 -0.0026585567 0.017728921 -0.017600538 0.03917766 0.035807047 0.007097135 -0.02276788 -0.013234879 -0.031752933 -0.031830825 -0.018844556 -0.00034107355 -0.022352215 0.04880312 -0.03839868 -0.043430317 0.017741404 0.041338347 0.013908063 0.0037406897 -0.01979348 -0.018690877 0.026053688 -0.0329023 0.022174733 -0.023950936 0.03525416 0.00393748 0.023876404 -0.0295076 -0.007439129 -0.03533357 -0.015353079 -0.03257785 -0.0043594134 -0.037685968 -0.034447104 -0.026018983 -0.02390958 3.906162e-05 0.00841371 0.045971345 0.018381517 -0.045059357 -0.048831638 -0.042986985 0.007917514 -0.024738103 -0.01243071 -0.04056612 -0.031168634 -0.03244867 -0.021609362 -0.020377552 -0.038943227 0.005455917 0.033926096 -0.0004637806 -0.015017479 -0.04567706 0.012492732 0.053247806 -0.042815007 -0.029427629 -0.02981466 0.014028789 0.016741384 -0.015191399 0.0070093838 -0.00370768 0.011388457 -0.01677773 -0.035527766 0.020427989 0.033889785 0.006408315 -0.018525597 0.013119253 0.055551995 -0.014534977 0.04176231 0.028226923 0.033221647 -0.026392622 -0.035900332 -0.046423767 0.03313798 -0.025196254 0.01438187
pinch -0.0084613245 0.064182594 0.01086326 0.08837378 -0.04125136 -0.061417967 -0.021307843 -0.078729056 -0.03698531 -0.029629499 0.043021355 -0.010768023 0.05136729 0.02217627 0.025842188 -0.056810725 -0.04945304 -0.008674004 -0.02913727 -0.00090838666 -0.031274308 -0.033789992 0.021364033 0.076268904 0.016145652 0.006448111 -0.017772935 0.037966635 0.024942765 0.043177348 0.03094376 0.034303334 -0.020452958 0.008831655 0.079163186 0.014579328 0.030517224 0.056163862 0.06567141 -0.01531002 -0.0140794525 -0.027858106 -0.056792583 0.028674847 -0.04632877 0.059715692 0.00016543428 -0.004118827 -0.06785325 -0.00041233934 -0.02626821 0.06432494 0.0074914256 0.03947174 -0.040790685 0.024790518 0.014973655 0.020516979 0.07240189 0.027244134 -0.030885227 0.004882024 -0.020944413 0.06933616 -0.024782617 -0.048817288 -0.06404973 -0.035688158 -0.06400933 -0.029945588 0.070864476 -0.091718994 0.032653887 -0.017583733 -0.014675004 -0.051047917 -0.060741205 0.017487954 0.028533781 -0.05567017 -0.055013478 0.03371098 0.008227218 -0.0015302566 -0.014220505 -0.030952286 -0.01897855 0.047460645 -0.021201491 0.0114544965 -0.051683772 -0.0035544634 -0.025037937 -0.05322088 -0.040466566 0.05537951 0.0063331607 0.023728773 0.027426237 0.041611463
persisted 0.0050841486 0.05753844 0.0024708845 0.03174133 0.055739228 -0.044750787 0.019112766 -0.06519291 -0.027116003 0.048527244 0.09890779 0.06360551 -0.028739141 0.09564478 0.024435187 -0.039990447 -0.095306754 0.027393749 -0.048508707 -0.00039977225 -0.02970712 0.030589383 -0.02901625 0.006678184 -0.022257037 -0.060836352 0.039254725 0.05760236 0.013645345 0.016532104 0.07073658 0.07517974 0.002712797 0.030808643 0.067527205 -0.05307277 -0.034533426 -0.013596422 0.06084163 -0.009151783 0.019677876 -0.044473514 -0.094014026 0.067278296 -0.031411666 0.062794454 -0.06779261 -0.027973017 -0.05879561 0.04777284 -0.02709605 0.023249054 -0.00559917 -0.015312694 0.07490632 0.019412076 -0.029240256 0.008794474 -0.042730965 -0.030539677 0.053033207 0.087813385 0.00036365027 0.06350789 0.044260416 -0.016116237 -0.008312431 -0.0019995377 -0.010768437 -0.08023863 0.06831408 -0.011858041 0.07234743 -0.05960911 -0.08488606 -0.031549226 0.026583055 -0.00076181546 -0.029465435 -0.08392545 0.011650228 -0.03165695 0.024037091 -0.055856135 -0.10212894 -0.04137713 -0.0050724116 0.015225541 -0.04688519 0.009385718 -0.08460604 -5.4196164e-05 -0.10597246 -0.0014330724 0.010250575 0.074631274 -0.0031459173 -0.02900161 0.07771122 0.044305548
favoured -0.0059569567 0.015702158 0.074333094 -0.044256512 -0.009516593 -0.038087677 0.04158106 -0.055136014 0.0563264 0.009169968 0.021203635 0.083283305 0.052685846 0.012876925 0.057151746 -0.056279622 -0.0027485194 -0.036754582 0.011341864 -0.07215975 -0.050242748 -0.0009013706 -0.07181891 0.052377447 0.053316373 0.019906085 0.006212871 -1.4305006e-05 0.05210189 0.00065322407 0.04043735 -0.005569773 -0.06094551 -0.07667798 0.0009940069 -0.0629609 0.025863262 0.015543157 -0.001840505 -0.011382047 0.02143055 -0.007126458 -0.051964615 0.028267883 -0.05015234 0.05996066 0.014817776 -0.05093341 0.009381094 -0.009472459 0.008900147 -0.034949195 0.027706971 -0.041256014 0.072501674 0.036663707 -0.0077592614 0.010323851 -0.01644637 -0.024957854 0.033686094 -0.01799834 -0.005256556 0.039155923 0.004263635 -0.04966245 -0.00020407722 0.026661608 -0.02771302 0.027606586 0.02215153 -0.024615968 0.035526738 0.014818978 -0.046739087 0.00277595 -0.0051637455 0.009911672 -0.023115888 -0.052051906 -0.045079116 -0.039625496 -0.039151836 0.0011482784 -0.046914898 0.02973357 0.0074420488 0.03792295 -0.04636373 0.014730436 -0.057974733 0.0061155404 -0.012584249 -0.034155205 -0.016262079 0.011678085 0.012591002 -0.07051919 0.051236246 0.050662804
leaders 0.0057147 0.039852675 0.030518834 0.062883146 -0.04416018 -0.07132418 -0.029884012 -0.04655568 0.070617124 0.012081848 0.061367523 -0.020081881 -0.01859057 0.021873578 0.062803224 -0.0068213264 -0.04807157 -0.032661147 -0.055994634 -0.035324864 0.011809551 0.011601921 -0.016898757 -0.032026537 0.053043216 -0.064165264 0.0071376096 0.04871198 -0.0052676145 0.06558529 -0.0067271227 -0.017562715 -0.00659267 -0.0069798557 -0.016443308 -0.016281035 -0.0007283303 -0.030168349 0.05883971 -0.07698826 0.056314006 -0.042557266 -0.03345224 0.0256531 -0.03447059 -0.026769651 -0.044034015 -0.015812365 -0.0661014 -0.0478243 -0.060753167 -0.011707901 0.032335367 0.054534834 0.008885411 0.07082657 -0.07018329 0.06551337 -0.0103565045 -0.024308585 -0.03751725 0.0530635 -0.021251228 0.07346986 -0.010766703 -0.06622681 0.028200038 0.0053468524 0.012306413 -0.039615642 -0.01887754 -0.058952365 0.07333472 -0.012584775 0.027727827 0.0071867085 -0.013403197 -0.055183515 -0.050002825 -0.05810622 -0.0037868842 0.011859044 0.047470447 0.011457965 -0.02290671 0.023658082 -0.049204096 -0.027615415 -0.03204842 0.055731464 0.012682019 0.06660625 -0.01363211 -0.042353686 0.021841872 0.0080031995 0.012801905 0.017967194 0.020059241 0.061062764
tired -0.018209718 0.12003312 -0.03797426 0.10352752 0.07097828 -0.08316417 -0.034548867 -0.05114129 -0.010374211 -0.16423072 0.114539765 0.111856975 0.14766143 0.066354655 0.046333745 -0.06603755 -0.016781671 -0.12133658 -0.21887797 -0.13099319 -0.06924088 0.06397526 -0.14633779 0.16865031 0.09763942 -0.19332474 -0.1285649 -0.015382851 0.0011783319 0.069033355 0.04284818 0.075386316 -0.13851199 -0.06737567 -0.028090967 -0.10730728 0.04588177 0.12764321 0.15543117 -0.15757886 0.10045996 -0.11843806 -0.036865998 0.0015926544 -0.10638919 0.1854967 -0.12492042 -0.07689446 -0.03475253 0.092726395 -0.15502271 0.13593291 0.018778754 0.17676985 0.103706434 0.1235763 -0.15238008 0.1256071 -0.036676988 -0.13385122 -0.0062627825 0.067857765 -0.054011527 0.050404433 0.059746116 -0.14933978 -0.0904198 -0.1307773 -0.07593539 -0.029689178 0.19564754 -0.12959458 0.074860714 -0.2413699 -0.13979732 -0.099423185 -0.13344084 -0.116558015 -0.1516133 -0.03265627 -0.02407374 0.10612046 -0.008241867 0.19669397 -0.044913303 0.063280545 -0.094162405 0.048826355 -0.0171478 0.00556524 -0.110514395 -0.007654559 -0.096170224 -0.1490017 0.012659321 0.07584003 0.11017824 -0.009386934 0.12573223 -0.0055200816
feathers 0.0024908562 0.024879476 -0.010538304 0.0011430933 -0.01550623 -0.015166481 0.001115977 0.00348867 0.03289477 0.013804923 0.009616668 0.009607521 0.01103029 0.031024713 0.045111336 -0.048480906 0.009186798 0.020474594 -0.022913754 0.034460638 0.02107787 0.018646818 -0.008890834 0.05156508 0.047553487 -0.049732037 -0.003121446 0.06925498 0.0018518363 0.040514946 0.018136423 -0.013496298 -0.029197494 -0.017478528 0.017503507 -0.06222469 -0.020128187 -0.011912799 -0.017402515 0.046808284 0.04718606 0.0033041085 -0.0049158954 0.0032847747 -0.026221193 0.0031335037 -0.02727849 -0.042484615 -0.019925656 0.023040665 0.0059620137 0.021014541 0.014145529 -0.033305913 0.031273626 0.026043262 0.019535717 0.009260036 0.042613413 -0.020827666 0.0023771718 -0.008572387 -0.031516053 0.05102968 -0.00019568368 -0.008622546 -0.038685363 -0.006782129 -0.036320295 -0.014601929 -0.026212761 0.009194466 0.033760656 0.012706506 -0.0101841 0.02141893 -0.009370254 0.025426826 -0.018062515 -0.0069493917 -0.05284273 -0.0033457512 -0.0016992659 -0.034425665 -0.046404876 -0.008423157 -0.011659823 -0.028360318 -0.02476614 0.036256194 -0.023889454 0.019647073 -0.018195854 -0.048533555 0.06504649 0.019137261 0.026868727 -0.03193794 0.04278984 0.021522723
elegant -0.05177536 0.014120362 0.010338636 0.01380208 -0.05122429 -0.04370893 0.029664872 -0.04048695 -0.003110108 0.02315691 0.062461063 0.022318073 -0.013678185 0.041332606 0.0060334443 -0.048470803 -0.073125295 -0.051266797 -0.051527236 0.021762632 0.015207437 -0.009203116 -0.035357174 -0.008444985 0.07121674 0.010967128 -0.024553593 0.037809428 0.03474767 -0.020158162 -0.0051563424 0.015469698 -0.039140802 -0.026114551 -0.054464728 -0.04207116 -0.042751808 -0.042136617 0.029535722 -0.06206075 0.041733395 0.0042201304 -0.017080091 0.045481093 -0.0056872303 0.01177235 -0.0023743552 0.002559706 -0.03032204 0.032705087 0.015739983 0.036560647 0.0108580915 -0.007798334 0.009082246 0.03975446 -0.004209317 0.027659714 0.0014130018 -0.05386789 0.04675049 0.043060154 -0.019380094 0.017066557 0.06573514 0.009045413 -0.075263314 0.009945576 0.012577416 0.0020489022 0.023824375 -0.06260279 0.028319841 -0.073320195 -0.026058368 0.00739889 -0.04269643 -0.015268442 0.020979365 -0.0029341565 0.021856703 -0.029761117 0.03632483 0.034681782 0.035300866 0.016404085 -0.05027113 0.050428282 -0.026809111 0.037454173 0.007890581 -0.011915138 -0.058592435 -0.012260616 0.0078074364 -0.012199683 -0.0018880614 -0.010345889 0.06976965 0.05898631
likely -0.03732131 0.11228979 -0.017985845 0.11180902 -0.058871537 -0.07209753 -0.06316161 -0.0017904021 0.019941922 -0.051530775 0.051868655 -0.015887694 0.046320174 0.055566296 0.058377486 0.0054428205 -0.007219412 -0.08545626 -0.13117754 -0.013402456 0.016808566 0.06951027 -0.020181037 0.043230716 0.015439729 -0.075016074 -0.031048715 0.06722011 -0.032658715 0.061714705 0.04900502 0.02949436 -0.045843855 -0.08572114 -0.014818063 -0.09506957 0.052246746 0.065770194 0.11687689 -0.15835425 0.024223663 -0.08490993 -0.101555906 0.025008457 -0.07183495 0.08440619 -0.089649335 -0.031756297 0.0021385625 0.031538986 -0.10312888 0.0742842 0.012115479 0.07341407 0.010513701 0.0055917474 -0.044346306 -0.008215645 0.09414892 -0.068922 0.0073964447 0.07364762 -0.04345666 0.101702146 0.0718645 -0.0749596 -0.09303707 -0.03990436 -0.0881812 -0.010411879 0.1005238 -0.079529814 0.04873425 -0.010245413 -0.090508506 -0.0294417 -0.06805304 -0.09246839 -0.1377261 -0.047954023 -0.058572117 0.09516703 0.054248355 0.027642058 -0.09399471 -0.053625863 -0.09898513 0.07469901 -0.014954321 0.0065687024 -0.1138727 0.07007741 -0.11437669 -0.11731458 -0.010142107 0.053674582 0.065374814 -0.017784456 0.042595815 -0.059334137
louder -0.0032573745 0.017381141 0.047693722 -0.050053682 -0.025954401 0.030461907 -0.015238772 0.0034217709 -0.026545357 0.004141654 0.03620538 0.051905937 0.0021308162 0.06712561 -0.0026512016 0.045259673 0.010005773 -0.069319196 -0.0074899956 -0.0011987952 0.012756495 -0.02053169 -0.029090641 0.021848887 0.029876608 -0.073063746 -0.003334214 0.05705368 -0.004930073 0.06511271 0.019010272 0.023882734 -0.059071213 -0.010184324 -0.004478471 -0.023013614 -0.009267587 -0.02028951 0.041822605 -0.07839282 0.030422414 0.018887736 0.0035843072 0.075353116 -0.04079282 0.049155682 -0.07577084 -0.0039539556 0.030413851 0.061058078 0.007910906 0.04558522 0.016551131 -0.021345269 -0.046115395 -0.012300389 -0.014078377 0.038506106 -0.01444806 0.0052116094 0.06247374 0.03602758 -0.06273043 0.03502961 0.02569142 -0.05034325 -0.006577693 -0.05531095 -0.055950314 0.030139258 -0.0015582439 -0.0077924565 0.012436734 -0.03819123 -0.06620896 -0.0077721328 -0.031448018 -0.048444238 -0.010592394 -0.021587664 -0.05008709 -0.051621467 -0.018253878 -0.056613453 0.0014554693 0.0052887253 0.004571499 0.063620664 0.0026046946 0.030905988 -0.05830089 -0.021394981 0.0021172566 -0.007949768 -0.04487835 0.068069026 0.029427065 -0.014625043 0.034013595 0.025890531
machines -0.004013715 0.07683647 0.0069755707 0.008008908 -0.03292007 -0.0056339637 0.025843324 0.008181037 -0.0155765945 0.0022536411 0.02253918 0.066953495 0.015277358 0.025824111 0.012575496 0.0017765565 -0.038302127 -0.02955868 -0.051559485 0.00065861025 -0.017305791 -0.030723216 -0.0345194 0.032110326 0.06729931 0.005767988 -0.034466024 0.060412303 0.021585986 0.025205951 0.0730371 0.08420355 -0.05589697 -0.0028621615 -0.06819171 -0.010818 -0.07721142 -0.0678051 0.004979205 0.022052638 -0.008050533 0.009736642 -0.00064959854 0.0044667907 -0.0369418 0.0616744 -0.08686629 -0.009313315 -0.006253578 -0.05416096 -0.010250663 0.043016415 0.045923706 -0.006892318 -0.043475196 0.05550025 -0.08291725 0.07085053 -0.031400584 0.01217256 0.033964008 -0.011555296 -0.06794547 0.04749311 -0.011182602 -0.06880483 -0.03928015 -0.02571612 -0.07452249 -0.011420895 0.03231397 -0.022752067 0.015074852 -0.019213844 -0.0067709046 -0.014608165 -0.04374298 -0.05173505 -0.026808811 0.017652249 0.038497686 -0.013153873 0.08800113 0.013913803 -0.013835996 0.060809147 -0.012952655 0.07748549 -0.07266455 0.021209816 -0.03550605 -0.022255223 -0.041986063 -0.025245326 0.028052976 0.08321612 0.04532486 0.01330705 0.003432267 0.028367296
shining -0.01520069 0.020283887 0.024174185 -0.009925125 -0.011632993 0.012928654 -0.0016991881 -0.052380215 -0.018123364 -0.041888524 0.016241372 -0.006704048 -0.014434792 0.002810026 -0.0024156186 -0.025821332 -0.013707415 -0.02609581 0.04927581 0.00087575667 -0.041607194 0.021722503 -0.012666056 -0.0048653455 0.020529792 -0.009306125 0.030005058 -0.026477689 -0.033482376 0.004476903 -0.03820837 -0.019995391 0.008291165 0.040826287 0.033922903 0.012998543 0.015084539 -0.0026646012 0.043928824 0.024935383 -0.017684117 -0.024104157 0.0395302 0.010244795 -0.022029845 0.04799768 0.0064711054 0.024701474 -0.03479373 -0.057898916 0.039008006 -0.04049425 -0.0027777473 -0.004809781 -0.010594202 0.030090569 0.0018681369 -0.03682108 0.016274778 0.031295005 0.038476404 -0.03305932 -0.010650324 -0.03384934 0.050333485 -0.016244093 -0.03087108 0.026620232 -0.008313263 0.005841719 -0.010291452 -0.025569541 -0.01063864 -0.0365686 -0.022757689 0.010662342 0.030352253 0.023643123 0.04786988 -0.00738025 -0.053609345 0.025593385 0.017187174 -0.006745147 0.03489053 0.05208812 -0.025002677 0.040848933 0.0050498373 -0.007805858 -0.021002173 -0.0058890963 -0.023678636 -0.013184285 0.015109329 -0.01054263 0.02905893 0.010034324 -0.016129432 0.032237113
even -0.15295506 0.10344965 -0.2982574 0.2163393 0.038390666 -0.19037816 -0.11490011 -0.18860866 -0.06762851 -0.07914895 0.1551816 -0.12904397 -0.009315816 0.13572684 0.021007514 -0.20177534 -0.057051823 -0.095637456 -0.23785114 -0.1045963 -0.14236088 0.28279907 -0.04188559 0.08887133 -0.083204076 -0.15218274 0.12857996 -0.014968311 0.010031575 0.18207072 0.0990495 0.07521869 0.01755181 -0.1692368 0.1978054 -0.066713236 0.23350929 0.06749922 0.15001622 -0.1885686 0.17100814 -0.14919597 -0.07499184 0.04341963 -0.15783082 0.16610387 -0.09701375 -0.17626484 -0.11571643 0.27137843 -0.2342224 0.013678035 -0.0023003428 0.3406069 0.31258193 0.18808031 -0.099764556 -0.053534072 -0.02369841 -0.09172944 -0.19491018 0.20653811 -0.17587204 0.15213105 0.030220503 -0.14587007 -0.223913 -0.24828081 -0.16142565 -0.12118216 0.22603354 -0.26671982 0.083904415 -0.0891419 -0.2823801 -0.13302113 -0.10935989 -0.037522957 -0.13162921 -0.08883592 -0.08727037 0.12899482 0.005716343 0.12462216 -0.23404057 -0.0699211 -0.1959408 -0.06748985 -0.09856855 -0.18722512 -0.1428029 -0.047651738 -0.13119717 -0.092564255 0.0076999553 0.096687645 0.15041012 -0.016045766 0.09518183 0.087462254
meekly -0.10288652 0.026856711 0.0014763111 0.03744672 0.0010744012 -0.042426232 0.0062567657 -0.08206212 0.0424261 0.047402937 0.041902006 0.021692222 0.02500625 -0.00071399775 0.04316831 -0.043449868 -0.006218474 -0.017169226 -0.072829455 0.007351653 -0.036224954 0.029641852 -0.09056513 0.06536056 0.022962267 -0.043448467 -0.023933234 0.06838254 0.033631574 0.030930655 0.017360263 0.027153295 -0.08592873 -0.073698394 0.038772993 -0.04879397 0.0049791457 0.07533192 0.0675268 -0.025557999 0.05035193 -0.047514375 -0.005377168 -0.013017156 -0.10382917 0.0577936 0.009320734 -0.044612464 -0.07111905 0.06972381 0.0032257356 0.029830985 0.019851958 -0.004973478 0.047142383 0.042386536 -0.089008264 -0.081836514 0.0862275 -0.05648643 -0.020408317 0.02092024 -0.015906297 0.048214387 0.053426065 0.017385034 -0.018656136 -0.03609632 -0.00664523 -0.05949181 0.025004517 -0.034091916 0.019585354 -0.029945226 -0.08322921 0.0043188287 -0.01069705 -0.0455694 -0.090122975 -0.08060936 -0.04580076 0.037194137 -0.030240988 -0.00989322 -0.049049202 0.01140964 -0.07349722 0.08640679 -0.010396606 0.11902715 -0.050576173 0.053425178 -0.037332285 -0.05910731 0.087215535 0.053508904 0.025173282 -0.020439215 0.029515417 -0.03451942
hide -0.06575959 -0.029587327 -0.027876675 0.045050945 -0.0139259435 -0.061558213 0.001972692 0.006105076 -0.043979343 0.03148652 0.0073797153 0.02018115 0.03598457 -0.009485338 0.0566667 0.08276599 0.007908447 -0.027655773 -0.031526558 -0.05319548 0.064362824 -0.044243805 0.033381756 0.036920417 0.014197078 0.004901757 -0.010009034 0.07130438 0.0013798547 0.067145646 0.022223711 0.0022798192 0.007814883 -0.070713356 -0.009824596 -0.04014236 0.027818808 0.040151514 -0.012935938 -0.060519148 -0.019272143 -0.009899003 -0.02658846 0.03508049 -0.0477617 0.017756235 -0.057995327 -0.057182055 -0.039319146 0.009472768 0.0058731567 0.0503451 0.018071538 0.030446058 0.00053037936 0.036155287 -0.03971312 0.026151266 -0.024153823 0.009960402 -0.0075360625 -0.012761267 -0.011175379 0.023765408 0.022522287 -0.08194227 -0.04297686 0.006370078 -0.027361818 0.021494752 -0.012630824 -0.01080511 0.04715213 -0.021189606 -0.031978384 -0.0043656994 -0.0066797687 -0.059804168 -0.0030247106 -0.049855683 -0.019984469 -0.0016212349 0.039692577 0.017985925 -0.034449037 -0.011680072 -0.023671377 0.038517904 -0.05722778 0.031857897 -0.030937728 0.021482343 -0.0020978032 -0.025842188 0.03240838 0.05585394 0.06680262 0.04327624 0.0071302103 0.0026357358
pace -0.049860846 0.043231487 -0.00219629 0.012651156 -0.010547453 0.01470856 0.017850788 0.021510774 -0.03571121 0.05568754 0.04487869 0.040026292 0.036658145 0.056365192 0.04722902 -0.0042853043 -0.0180567 -0.031802528 -0.031416964 -0.08488994 -0.03489768 0.011465792 -0.028977102 0.06006094 0.07329695 -0.00017477025 -0.025335122 -0.0022557853 0.009310639 0.053498942 0.062682174 0.016886022 0.012532331 -0.0050482857 0.028335517 -0.035504784 -0.009508802 -0.024128497 0.040120315 -0.022571947 -0.0069724144 0.007325055 -0.03157605 0.00018535717 -0.01830873 0.032121774 -0.09174399 -0.04578335 -0.0633858 0.046856146 0.027459819 -0.02352961 0.021618374 -0.077190116 0.031770173 0.07401435 -0.02386336 0.05341978 0.03470968 -0.04176809 0.055371813 0.047280468 -0.05368186 0.043835808 0.03380116 -0.04407982 -0.06798312 0.03336794 -0.01271661 -0.021298504 0.012504729 -0.011178015 -0.012901195 -0.0745687 -0.059465423 -0.05401592 -0.024315694 -0.05842386 -0.037492298 -0.020639414 -0.07168289 -0.029111356 0.06754115 -0.073025696 -0.008030041 -4.717207e-05 -0.0564006 0.040359545 -0.041086115 0.0625625 -0.038796138 -0.031578314 -0.07859323 -0.039621964 -0.013484657 0.080285996 0.008957512 -0.0641467 0.06947063 0.002577139
solemn -0.095022246 0.121281594 0.031213555 0.017782785 0.014172657 -0.047970295 0.045683894 -0.12614332 0.07240118 -0.021667982 0.110283054 0.091257185 0.04633389 0.02484466 0.023042418 0.018061262 0.05341845 -0.0760182 -0.13788769 -0.04622211 -0.020812934 -0.07706656 -0.07279723 0.03360731 0.070918635 -0.054729342 -0.025259033 0.12762797 -0.011175925 0.097071275 0.09002102 0.10216441 -0.055511177 -0.066726916 -0.04510836 -0.09163759 0.028069299 0.044808786 0.027520249 -0.055280663 0.09823545 -0.007990516 -0.061568193 0.13539398 -0.08120341 0.07734619 -0.019296534 -0.09419306 0.006821751 0.09035264 -0.0063086958 0.09507645 0.07558228 0.011568572 0.022648709 0.068971805 -0.16178742 -0.012227717 -0.056200974 -0.052545045 0.052300446 0.016092166 -0.11116627 0.009541039 0.105970204 -0.058110464 -0.078409955 -0.10311809 -0.019061873 -0.095062025 0.062188357 -0.117525235 0.097655065 -0.06554645 -0.05059331 -0.016854573 -0.05086337 -0.08553206 -0.12056029 -0.062228758 -0.093439825 0.015345206 0.031600688 0.07551445 -0.08690867 0.101494595 -0.044323124 0.09147905 -0.14423831 -0.032806296 -0.11278961 0.07706895 -0.058214065 -0.06565077 0.124077 0.14476857 0.042260937 -0.03482012 0.0439156 0.043590974
thunder -0.037041634 0.023569386 0.014782122 -0.02177872 -0.03768712 -0.027876144 0.0008723997 -0.027019735 -0.0069218082 -0.064307384 -0.018483024 0.035050616 -0.0019187174 -0.010780085 0.05213236 -0.049904063 -0.041598357 -0.043075923 -0.031628184 -0.06939448 0.010160331 0.02568052 -0.080666475 0.051714398 0.07188138 0.021049114 -0.0004019161 0.085406825 -0.017290724 0.045355942 -0.001011401 0.063292295 0.013736649 0.025429191 -0.04874953 -0.037019312 0.021670094 -0.008756753 0.02074374 -0.07107156 0.0075964443 -0.014113844 -0.025464496 0.04650556 0.05843665 0.036792796 -0.030126734 0.016771423 0.012769542 -0.03659242 -0.05293746 0.06582661 0.06098639 -0.039245922 -0.015075874 0.029661253 -0.018422484 0.0131993275 -0.0030362005 -0.004156797 0.05586661 0.03706495 -0.05432649 -0.022495946 0.0295726 -0.012579433 -0.037414152 -0.050569646 0.006017925 -0.04146988 0.058106326 -0.045069184 0.052399334 -0.044039126 0.007881135 -0.0043152296 -0.06839408 -0.04436481 -0.07634825 -0.06257147 0.00024202958 -0.060144607 0.024762081 0.0091864485 -0.03908911 0.0027677387 -0.05229997 0.010696955 -0.056949295 -0.040925425 -0.010432078 0.014335181 -0.050205726 -0.020442322 0.032533415 0.07751356 0.052137554 -0.057616718 -0.009842561 0.071816266
near -0.11874934 0.030284021 0.01790041 0.019851927 0.25720823 -0.13079318 -0.024479311 -0.16395463 -0.07007254 -0.08596191 0.090651445 0.036443427 0.19396505 0.08071128 0.19896944 -0.07661378 -0.009833412 0.077345766 0.025490116 -0.11020419 -0.055135313 0.0059186113 -0.057589974 0.06943841 0.0899901 -0.100502156 0.06296681 0.03569202 0.11705556 0.055014543 0.1347918 0.15536629 -0.058455363 -0.12821442 0.036377486 -0.040442396 -0.0024909102 0.006089599 0.13975942 -0.029825047 0.10477647 -0.07273235 -0.03731508 0.068514764 -0.014968779 0.03824136 -0.12463081 -0.10150227 0.036148347 0.00059942366 -0.022244742 0.0049363687 -0.0043787947 0.114416234 0.16911685 -0.06430469 -0.10193299 0.019802736 0.067922495 -0.026714325 0.035076678 0.06359033 -0.103408754 -0.007947898 0.15441978 0.0084975 -0.033031005 -0.033557635 -0.035373695 -0.07759371 0.051418625 -0.12887894 -0.01990627 -0.051203102 -0.18829638 0.1821969 -0.0798257 -0.06107437 -0.08723645 -0.053961437 -0.084702864 -0.102566734 -0.03252541 0.07075845 -0.10916227 0.08220005 -0.12623021 0.111348204 -0.12114043 0.014503382 -0.1401517 -0.024903119 -0.1474909 -0.079001635 0.11880531 0.12001353 0.1040308 -0.019926013 0.07559634 0.08792342
poison -0.04362353 0.04702332 -0.1445136 0.08439704 0.027062956 -0.106371775 0.030459214 -0.05629898 0.07171125 -0.027361041 0.005953148 0.04325923 -0.013390633 0.10015717 0.06892582 -0.022075316 -0.006314748 -0.021823708 -0.048721872 -0.059663065 -0.007304967 0.042419795 -0.040676847 0.030077783 0.026221912 -0.05087736 -0.06746599 -0.010113223 0.028002882 0.14535756 0.12520385 0.0850503 -0.10181999 -0.053315233 0.106895916 -0.09328085 0.04741259 0.039856948 0.03156311 -0.039573595 0.053050812 -0.0208022 -0.039080407 0.09320366 -0.12822433 0.062138617 0.039079178 -0.12151123 0.014635812 0.13522848 -0.04634513 0.07101774 0.05555117 0.08350244 0.019503523 0.060142793 -0.08282223 -0.012725538 0.058496084 -0.027956324 -0.06718072 0.09465929 -0.06756313 0.099578455 -0.03700204 -0.103771105 -0.07018087 -0.030049222 -0.07570115 -0.014290518 0.05746196 -0.017155657 0.108089946 -0.05931098 -0.10206406 -0.11962771 -0.021945748 -0.051778194 -0.091402315 -0.027585914 -0.031912606 0.048888247 0.02257246 0.050866034 -0.041612975 0.010683113 -0.05071769 0.02349938 -0.019949425 0.025081009 -0.10801938 0.027253902 0.017291125 -0.042850673 0.0655871 0.054012336 0.036276646 0.012332903 0.018150253 0.041548602
above -0.052732736 0.06883293 -0.008071395 0.02055947 0.0068724444 -0.0285641 0.03418727 -0.016231602 -0.055859424 -0.012523955 0.0286602 0.09379509 0.08280094 0.059124522 0.07198485 -0.062643185 -0.03966426 -0.05671352 -0.027652983 -0.026942933 -0.014850597 0.03066402 -0.0010174906 0.07729131 0.031016307 -0.075632416 -0.06590455 -0.0062377453 0.002864929 0.055613875 0.05127771 0.07555442 -0.07276724 -0.036467087 0.010370662 -0.08359613 0.00082890794 0.041947972 -0.008735372 -0.08819589 0.062747516 -0.024093384 -0.032256655 0.021730788 0.016634466 0.06863352 0.009311602 -0.04481087 -0.009340825 -0.0036618602 -0.07348917 0.092853494 0.004551526 0.03404104 0.030178647 -0.000121363555 -0.0025018645 -0.028091105 0.04229032 -0.05106478 0.015341092 0.05497749 -0.009226089 -0.018336568 0.07546864 -0.017639937 -0.08838053 -0.03131913 0.013582336 0.027820382 0.03394678 -0.094394565 -0.01811016 -0.02125669 -0.04100649 0.001381887 -0.07816194 -0.048800968 -0.04274633 -0.04567065 -0.050359663 -0.055262603 0.04068119 -0.00628773 -0.09655034 0.01246857 -0.046121314 -0.03546127 -0.04108046 -0.004576432 -0.06291701 0.023703624 -0.0048385686 -0.021871153 0.0147278225 0.038335692 0.03635358 -0.032436498 0.07340915 0.03893624
conduct -0.016221723 0.06639223 0.011504223 -0.015812503 -0.012671492 -0.054409597 0.032807846 0.0007974991 -0.02439765 -0.05140545 0.007332555 0.07678686 0.051512964 0.009383339 0.03889937 0.014179661 -0.06525027 0.01061423 0.0063164434 -0.041942377 0.018814445 -0.05636695 0.00798524 -0.007815066 0.009096334 -0.0073497314 -0.010264574 0.081010796 -0.005989713 0.0471149 0.017208396 0.054479424 0.0038799143 -0.01997002 0.0300906 0.0022907592 0.03809453 -0.055241164 0.04070017 -0.028068831 0.0075532366 -0.048504334 -0.069121994 0.058472894 -0.046468414 0.07390015 -0.06141959 0.0043693916 -0.029765999 0.0038556538 0.02651814 -0.014130463 0.014270525 0.025785198 -0.03426752 0.02671519 0.0015865705 -0.016505785 0.024702014 0.0196546 0.048117384 0.0053802556 -0.04870983 0.0040535107 0.054539546 0.03752151 -0.0007378358 -0.056003828 -0.029286811 -0.009368941 0.015008027 -0.003911033 0.052274812 -0.054967456 -0.06543833 0.022330845 -0.04124353 0.0060762907 -0.028817814 -0.0053774286 0.009727262 0.005182367 -0.03307165 0.019844381 -0.022658542 0.019631585 -0.035426967 0.055361107 -0.06491978 -0.04839789 -0.041960396 0.031760316 -0.030595768 -0.015500355 -0.025755845 0.06343861 -0.012699564 -0.047291875 0.06543308 0.0030275325
new -0.10811239 0.056649517 0.05354644 -0.046815384 -0.06580828 -0.064782225 -0.011506276 0.064208865 -0.05680598 -0.04033461 0.0741651 0.105176 0.074040465 0.051048763 0.06097334 -0.016080862 0.092283204 -0.19980213 -0.18949516 -0.05980363 0.031800024 0.06307246 -0.0016850629 0.0040424936 0.098051876 -0.085093506 -0.057539526 0.03152891 -0.07225511 0.076714575 0.07742411 0.12767774 -0.08362586 -0.08509418 -0.020353483 -0.13697535 0.050231647 0.15472756 0.058263548 -0.13799605 0.08149315 -0.055235352 -0.055019572 0.00491528 0.051087078 0.13212614 -0.1387362 -0.07558974 -0.061266214 0.06308173 -0.114837624 0.10741861 0.13148904 0.015886754 -0.10688401 0.108227365 -0.09334366 0.046040278 -0.034226112 -0.050268255 -0.0055682496 0.037317317 -0.07808934 0.056163304 0.13658735 -0.14485674 -0.13083036 -0.06296904 -0.14209856 0.06291889 0.20668836 -0.028789137 0.107053734 -0.15788738 -0.15232368 -0.002531832 -0.119930625 -0.0991985 -0.07010242 -0.031048026 -0.07412601 0.026184598 0.028834237 -0.0366348 -0.10189617 0.035939343 -0.044755023 0.1142413 -0.1159287 0.041594252 -0.13802491 0.022652732 -0.12424455 -0.11533046 0.011400145 0.09800371 0.16202265 0.0713181 0.093967386 0.0135492
ever -0.13721076 0.04821003 -0.2504173 0.16745818 0.052047603 -0.0752816 -0.19984037 -0.08068313 0.06404884 -0.07238221 0.15017888 0.0879617 0.03302116 0.087631196 0.039823405 -0.19800177 0.044205822 -0.030680152 -0.23663095 -0.10088039 -0.13213196 0.20833594 -0.21599326 0.19819075 -0.022493549 -0.08188176 -0.040806442 -0.010076048 0.12361321 0.20999116 0.07578918 0.14246427 -0.19042392 -0.10820872 0.09049032 -0.20198707 0.34502283 0.0808518 0.08704838 -0.20752217 0.009911099 -0.042885087 0.021562645 0.01910904 -0.1496811 0.13881944 0.050106168 -0.067453116 0.011731207 0.22367653 -0.19549926 0.12559655 -0.032171637 0.30626503 0.25653186 0.22755657 -0.19795829 -0.016038124 -0.08932098 -0.036557984 -0.26115683 0.1900084 -0.16996686 0.06029608 0.0024327314 -0.2255686 -0.1402931 -0.16002661 -0.17846642 -0.0881833 0.27156183 -0.13528694 0.23253866 -0.23612148 -0.18212193 -0.16185552 -0.08846424 -0.15268482 -0.134731 -0.13504297 -0.09359737 0.16586187 -0.047825594 0.13378823 -0.18973097 -0.14252384 -0.026206952 -0.03129945 -0.07978281 -0.17348346 -0.14330444 0.060994666 -0.06367705 -0.16748251 -0.025256587 0.17781875 0.08213879 0.07969619 0.12984052 0.044939265
told -0.093869805 0.009847354 -0.16486606 0.20194012 -0.051630273 -0.0994017 0.0401793 -0.086231 0.037992623 0.03456641 0.07305464 0.02051733 -0.004468353 0.22886153 0.01175856 -0.1164244 -0.19597791 -0.16413923 -0.15157881 -0.06466982 -0.03208979 0.15445742 -0.0109307105 0.106784575 0.10090486 -0.21697618 0.00034027838 0.14807925 0.004534208 0.1727778 0.17388721 0.110564254 -0.09636137 -0.064430185 0.10308464 -0.1989827 0.09645649 -0.0005302719 0.1338724 -0.17284621 0.058652673 -0.13795125 -0.12445244 0.10229248 -0.13948935 0.14517537 -0.031487837 -0.119004786 -0.08595274 0.18449016 -0.15932527 0.03586476 0.047594886 0.18564019 0.17974201 0.14526132 -0.09244623 -0.14837255 0.13593301 -0.08705259 -0.05486818 0.16745982 -0.13040154 0.17750235 0.07086721 -0.17198475 -0.11663885 -0.17020509 -0.15120564 -0.15611234 0.14242771 -0.14239961 0.18462166 -0.0989264 -0.078461945 -0.10415398 -0.15817112 -0.09289401 -0.0757443 -0.068841025 -0.18205959 0.14136882 0.033699267 0.048336186 -0.15929753 -0.06771437 -0.107617 0.13198704 -0.106267266 0.028519237 -0.10846276 0.08344999 -0.119487345 -0.18343654 -0.08648376 0.1305239 0.0902318 -0.11835913 0.06411289 0.01287929
never -0.082965985 -0.031119859 -0.3667344 0.41722432 0.13834018 -0.07551694 -0.34677717 -0.045478128 -0.051259417 -0.107094415 0.15015064 -0.009975783 0.009982827 0.16058734 0.13642487 -0.30431047 -0.09205293 -0.020132136 -0.29664135 -0.16693953 -0.10241371 0.38718295 -0.26498035 0.31216016 -0.10447588 -0.26077288 0.13327575 -0.085559204 0.029141882 0.3197936 0.26273447 0.10002704 -0.29520005 -0.0725831 0.38375142 -0.10196387 0.3395751 0.33324087 0.11429736 -0.29130876 0.050792374 -0.11624843 0.11804524 0.08037431 -0.057437122 0.0950986 -0.108861804 -0.30246544 -0.1381374 0.17730977 -0.26257077 0.07108513 -0.086784124 0.38748345 0.3616949 0.19588836 -0.23846647 -0.017960874 -0.13912654 -0.113783434 -0.36388662 0.23171698 -0.23660986 0.19494352 0.06805199 -0.14321062 -0.21499203 -0.13937876 -0.21494476 -0.21844593 0.30012235 -0.22504912 0.12542522 -0.29940686 -0.24182966 -0.18075775 -0.3132389 -0.061220415 -0.27127972 -0.22244202 -0.13429551 -0.0060247825 0.07872691 0.31226632 -0.18871441 -0.26029658 -0.07455567 -0.037234686 -0.036898024 -0.115804896 -0.17641924 0.056580387 -0.14309466 -0.23154579 -0.012252899 0.173709 0.23859368 -0.04747066 0.27996334 0.14614344
wrapping 0.010633213 0.012374731 -0.030705696 0.023038162 -0.0063486835 0.01853571 -0.013544846 -0.00054248713 -0.0058097932 -0.03899374 0.007294947 0.032418653 -0.016437965 0.038610224 0.03153047 -0.012508156 0.019949118 -0.024198523 0.0014738308 -0.059495702 0.0033137896 0.03509106 0.0068124225 0.023629496 0.053071976 -0.05431425 -0.02152414 0.034699805 0.009910757 0.058150228 -0.021695692 0.042907663 -0.0428029 -0.013437474 -0.045770984 -0.0075983726 0.006703868 0.05986094 -0.037355892 0.02005577 0.0166706 -0.04529682 0.03939817 -0.03833787 -0.026657254 -0.014505853 -0.03350286 0.0067813173 0.038853098 0.037033297 -0.04148422 0.025200132 -0.021090262 0.010677089 -0.038079083 0.03731385 0.006107699 0.020287674 -0.060057014 0.01343345 0.042427022 -0.009902188 0.0027408449 -0.0031209774 0.066350766 0.01029297 0.028894182 0.0033381183 0.022610553 0.028957294 -0.0010310044 -0.051943883 -0.043552298 0.033202603 0.018442886 -0.015269521 -0.018839097 -0.038603265 0.021184959 -0.029208323 -0.03655764 -0.019840008 -0.011863387 0.011512323 -0.010720031 -0.0007136598 -0.034708224 -0.034086116 -0.034591988 -0.026166823 0.026417937 -0.04189227 -0.024383463 0.019938024 0.009378273 -0.01672466 0.0016139267 0.012729862 -0.004930471 -0.019065212
here -0.10096949 0.103077106 -0.30110696 0.061184112 0.17509066 -0.20550194 -0.18886171 -0.059643023 0.009467178 -0.15125212 0.08893383 0.13738059 0.15360308 0.26270676 0.28655055 -0.13908738 -0.06515723 0.059117116 -0.22384645 -0.08018687 -0.101837665 0.18138768 -0.33273292 0.15524402 -0.04170506 -0.019502956 -0.010228107 0.19641797 0.29225433 0.15666579 0.09423595 0.17192297 -0.0990062 -0.07136597 0.20957312 -0.25019032 0.19811979 0.32538044 0.17104003 -0.058747225 0.14685848 -0.040726807 -0.085818715 0.022466082 -0.14804688 0.123871125 -0.07499993 -0.2499508 -0.07650994 0.24921954 -0.29707927 0.098969735 0.10145588 0.23674838 0.37320927 0.09426745 -0.2916544 0.14332148 0.001709532 -0.21213466 -0.20222569 0.3072087 -0.03719359 0.20269924 0.30634972 -0.052826364 0.002843443 -0.19959514 -0.25158724 -0.1953061 0.062118158 -0.23100036 0.008755243 -0.19698651 -0.26421463 -0.07725496 -0.13585867 0.10953562 -0.10710262 -0.15217784 -0.10101087 0.050553653 -0.040666383 0.31789306 -0.16662346 -0.083560094 -0.14385141 0.31004936 -0.027337594 -0.043996397 -0.22141196 -0.43612853 -0.23466708 -0.06632814 0.08765341 0.11270278 0.044233844 0.13870367 0.1105838 0.025452992
met -0.02503233 0.04697345 0.044626582 0.023249049 -0.064789124 -0.08848246 0.033906553 -0.0410244 0.016979573 -0.005592573 0.04316395 0.08788094 0.05681219 0.100857265 0.10132075 -0.050110474 -0.007183055 -0.091794536 -0.040724497 -0.06421291 0.010354828 -0.029762285 -0.05794782 0.115324095 0.046685793 -0.07832872 -0.030515226 0.10288069 0.03745547 0.021513352 0.025899105 0.04935704 -0.009658528 -0.038939036 -0.070889 -0.015545908 -0.02458259 -0.044225097 0.06587871 -0.032993596 0.05025672 -0.008821286 0.0031213907 0.035195358 -0.016790804 0.026037697 -0.092028596 -0.13628978 0.00089079386 0.024165906 0.02432285 0.04413012 0.08568901 -0.048047148 -0.010533485 0.09413238 -0.090826556 0.07853301 -0.028802548 -0.03668254 -0.0022848845 0.047400862 -0.047505543 0.027268536 0.022037314 -0.05565332 -0.05701102 -0.060363498 -0.11203214 -0.037785836 0.01756654 -0.033747643 0.010402183 -0.08310618 -0.026574893 -0.004927094 -0.1052745 0.038131285 -0.0818859 -0.04367896 -0.046049185 -0.08053139 0.124851644 0.0069633806 -0.08232885 0.09549217 -0.103053264 0.044315424 -0.057270084 0.064925455 -0.07236793 0.04104381 -0.01408044 -0.087781854 0.08521826 0.07589228 0.11341147 -0.049909715 0.052476764 0.03928636
protection -0.050807346 -0.008176312 0.040429395 0.005201917 0.020018168 -0.057465434 0.042570457 -0.050801646 -0.015828056 -0.02402704 0.03447582 0.04453479 -0.0410861 0.073429935 0.053553786 -0.014735066 -0.0069848546 -0.047296457 0.028535783 0.016884975 -0.04619496 0.036499713 -0.05337572 0.056611456 0.015444392 -0.06498214 -0.061438102 0.019519828 0.024160719 0.015727773 0.06129875 0.047942676 -0.012458954 0.0014929586 -0.0021949892 -0.07100846 -0.03724996 -0.03114926 0.005870418 -0.012341558 0.04336002 -0.012896121 -0.028173547 0.025337702 -0.02404883 0.02741796 -0.058149297 -0.027316337 0.027993008 0.032020334 -0.050982483 0.05750397 0.0067041554 0.03738884 0.022433314 0.06737901 -0.07296694 -0.015347147 0.04685227 0.023389986 0.0516786 0.010366176 -0.039484583 0.006165627 0.025253892 -0.06874775 0.012272849 -0.0018683712 -0.050613277 0.022563867 0.021671299 -0.009001546 -0.010125417 -0.06442633 1.7001294e-06 0.01658456 -0.019196326 -0.0128895035 -0.028834876 -0.059247263 -0.06639357 0.003012252 -0.030210784 -0.033339094 0.0077748615 0.026060006 -0.017344356 -0.00839684 0.020506553 -0.030849626 -0.07037456 0.06631387 -0.03227732 -0.027913248 -0.0030847453 0.0137438495 0.022328842 -0.057164397 0.004510149 -0.04483458
hers -0.03631464 0.08779234 -0.0049001523 0.12988499 -0.05652391 -0.0788856 -0.08449472 -0.022517718 0.0003597117 -0.06743749 0.0506919 0.026720637 0.04555218 0.070620984 0.09115208 -0.026824616 -0.06909672 -0.097796984 -0.11934878 -0.09472312 0.032808542 0.062426697 -0.0350775 0.13510486 0.08932641 -0.10904015 -0.102499336 0.049540382 -0.0037688338 0.029631466 0.11901361 0.16834043 -0.12045004 -0.041270215 -0.013403504 -0.10841559 -0.0007147172 -0.04257182 0.0887952 -0.15667816 0.046895903 -0.050957415 -0.03128972 -0.0075953337 -0.051909674 0.063236 -0.089666456 -0.07623016 -0.014449633 0.044442534 -0.109049916 0.13987711 -0.011192648 0.037923787 0.00479456 0.056242503 -0.11900939 -0.00092038483 -0.018471843 -0.011645572 -0.017801093 0.046407495 -0.13271065 0.081405304 0.08641816 -0.06085429 -0.11541674 -0.066986404 -0.017675227 -0.08473424 0.09504135 -0.07155971 0.14714724 -0.06821917 -0.13816965 -0.06900793 -0.13839623 -0.07017828 -0.09874214 -0.07153291 -0.04609175 -0.01605998 0.056818444 0.038465537 -0.022102982 0.06573447 -0.07309754 0.01819583 -0.09226095 -0.025390148 -0.11831684 0.15014324 -0.037025284 -0.061148148 0.06383631 0.1210426 0.068023756 -0.042045362 0.14250219 0.104042605
cardboard -0.050183818 -0.03298433 -0.03058 -0.027034732 0.0037389311 -0.030318156 -0.04356765 -0.022964815 0.022599492 -0.048125632 0.045932356 0.029808376 0.039432596 0.041201252 -0.023378985 -0.053796254 -0.02471667 0.017762754 -0.0010504765 0.00836975 -0.03702056 -0.03006393 0.03177583 -0.011334291 -0.034032267 -0.034061354 0.0056832307 0.015761837 0.026047155 -0.029911382 -0.034903813 0.015050544 0.017361455 -0.024382146 -0.040248636 -0.0058747213 -0.010284626 -0.016793568 0.029574532 0.028426288 0.0042476477 0.021671502 -0.012863029 0.018185884 -0.01519856 0.046080507 0.011711261 -0.042430345 0.02417863 -0.008051448 0.036738936 0.049077827 0.051975947 0.032120563 0.0104161035 0.0040202206 -0.034267224 0.050261606 -0.042527426 0.032431364 0.04988453 -0.023145298 0.022772335 -0.020915525 -0.03045117 -0.007899731 -0.0055428566 0.039124012 -0.024998061 -0.024825558 -0.026599357 -0.024536405 -0.014220607 -0.011485835 0.016342333 -0.036821526 0.016611574 -0.04473219 0.033109933 0.04581029 -0.020951616 0.025631215 -0.0048855357 0.040524315 0.00455366 0.036762174 -0.038558815 0.040676996 0.0012661024 0.03421026 -0.031115787 -0.021376906 0.044062417 0.0010745174 0.014635518 0.047639396 0.015262606 -0.04705603 -0.008324854 0.019976085
shriek -0.19089156 0.13257813 0.14486808 -0.018355485 -0.04903788 -0.1085752 -0.00045061688 -0.025250196 0.058815222 -0.07387955 0.18472834 0.07957283 0.10453723 0.06597046 0.10115868 -0.01781844 -0.0019905232 -0.1742409 -0.115304485 -0.1699535 0.0031864967 -0.1402072 -0.047756083 0.04760699 0.15607598 -0.09240915 -0.1500023 0.13210733 0.08740033 0.08681034 0.11057493 0.14566022 -0.17548753 -0.18882704 -0.11453913 -0.12992276 -0.050446466 0.034572423 0.11534613 -0.057247907 0.0995304 -0.08294028 -0.14046562 0.16436705 0.023255754 0.16994545 -0.121735476 -0.02818703 -0.084699 0.076192655 -0.12487914 0.14904349 0.13067445 -0.05882367 -0.03143612 0.16685146 -0.22681892 0.030991057 -0.050149675 -0.16731401 0.1377992 0.14128032 -0.08855426 0.10131583 0.14316064 -0.1897247 -0.16408737 -0.050848134 -0.14461651 -0.085783966 0.12739953 -0.11532013 0.09678 -0.08660268 -0.15987903 -0.117787 -0.11369674 -0.124057405 -0.10444806 -0.14569598 -0.12877464 -0.04616134 0.17409413 -0.010804527 -0.08763135 0.15340492 -0.14699692 0.12223358 -0.18283698 0.09428087 -0.19156088 0.08337745 -0.09114516 -0.08925756 0.0746843 0.14225896 0.16420946 -0.020261852 0.12228222 0.079425134
dry -0.09936196 0.100327015 -0.19039863 0.13269868 0.018033886 -0.21777341 0.03469063 -0.12750117 -0.0036916411 -0.12284265 0.06422094 0.078519665 0.01957798 0.15828368 0.09888598 -0.05073025 -0.098877326 -0.12465134 -0.16509943 -0.08228992 -0.0032527416 0.14003606 -0.116565816 0.07428546 0.060390487 -0.107356444 0.044904053 0.066044 0.075019315 0.07187733 0.06646497 0.17593133 -0.032780375 -0.065123715 0.09069783 -0.16609693 0.15273656 -0.005963781 0.09194231 -0.059182048 0.15373528 -0.12550499 -0.039915226 0.022773668 -0.10962016 0.06034934 -0.08948754 -0.07869048 -0.042680677 0.18576251 -0.21713424 0.088948004 0.070623256 0.17148112 0.1600846 0.14392751 -0.025557034 0.005827694 0.101292364 -0.036202326 -0.13188787 0.08657775 -0.11496111 0.14115584 0.08428433 -0.07704522 -0.06427184 -0.19855264 -0.18722865 -0.024488773 0.10199237 -0.12276068 0.083465174 -0.08962495 -0.05264743 -0.08967297 -0.10244969 -0.072429575 -0.059557453 -0.11076722 -0.13429926 0.21185815 0.0006801076 0.14614873 -0.10046179 -0.022960518 -0.13326597 0.01105695 -0.046762664 -0.02394653 -0.086732745 0.0846761 -0.075398125 -0.170308 0.002841439 0.13870822 0.06299454 0.024409596 0.065410696 0.03635645
daughter 0.010046839 -0.020660782 -0.006377861 -0.031618863 -0.04024695 -0.030953197 0.028111164 0.016315278 -0.014145775 0.031660464 0.050802983 -0.0119344955 -0.0082993675 0.020798245 -0.032007344 -0.02413837 0.027934937 0.013328649 -0.0061899745 0.007157093 -0.036943547 -0.03734414 -0.008681195 0.020768723 0.004502801 0.015872817 0.022580018 -0.0065002423 -0.018970907 -0.013214347 -0.026756788 0.021260114 0.03871392 -0.008093107 0.019001683 0.006370924 0.0252711 0.019484367 -0.038148686 0.042936422 0.018128801 0.0053787236 0.006094902 0.030555611 -0.05330587 0.05037872 0.021283764 -0.038832705 0.032904956 0.017556572 0.024528055 0.031387504 0.030502886 -0.007873263 0.026752593 0.03515553 0.039683286 -0.026436301 -0.025700979 -0.013285535 0.041260667 -0.021107469 -0.03237636 -0.015786653 0.021447765 -0.022214558 -0.036501743 -0.046427775 0.012226281 -0.0036493223 0.02490074 -0.056939762 -0.037597474 0.011726216 -0.01893597 0.038556207 -0.027549826 -0.015974805 -0.023089394 0.04684875 -0.016149726 0.057933655 0.016954293 -0.018888911 -0.04216299 0.021037415 0.04786792 -0.04263646 0.00426218 0.009404876 0.0052526584 0.003486934 0.026470214 -0.029513456 0.0270622 -0.027492387 0.017053366 0.017208738 -0.032952603 -0.0037715868
leaves -0.07082664 0.07552301 -0.008152569 0.037340295 -0.042398576 -0.058545478 -0.03367359 -0.033552773 0.018692767 0.013702191 0.053346906 0.050119422 0.053800724 -0.0009086665 0.0735755 -0.019726507 -0.09158186 -0.025285248 -0.023787813 -0.01554854 0.0058297566 0.02096203 -0.081796005 0.019913904 0.0671207 -0.018234873 -0.03928573 0.109555155 0.05136378 0.046205483 0.08509948 0.09097734 -0.06210794 -0.06009031 0.07226279 -0.0695282 0.016341474 -0.028235625 0.108855076 -0.11460879 0.10122766 -0.05125106 -0.0352576 0.04707006 0.037246108 0.0435171 -0.07267215 -0.093283385 -0.01493256 0.017297998 -0.062228028 0.11368039 0.020404147 0.014432992 0.11714669 0.110208884 -0.03684125 0.08238241 0.07491401 -0.026134979 0.045066774 0.06509776 -0.12723014 -0.009104165 0.062648505 -0.053903054 -0.056083553 -0.020204684 -0.0705506 -0.1211647 0.046351455 -0.045258895 0.05215244 -0.13308677 -0.09208872 -0.035573114 -0.031147642 -0.11534892 -0.0728465 -0.062108688 -0.105578266 0.07011712 0.055468787 0.06783315 -0.071875416 0.03210759 -0.09957271 0.013926887 -0.07885191 0.07689318 -0.10600532 0.025520492 -0.06747635 -0.049340125 0.05284148 0.09052636 0.10601635 0.006348256 0.06943736 0.10967732
changed -0.026334954 0.032203022 -0.1138012 0.17005914 0.032704573 -0.16481857 -0.028450217 -0.039900877 0.032095965 0.033778355 0.033186495 0.041241877 0.06497697 0.162229 0.022940783 -0.13049823 -0.13032423 -0.0863563 -0.13068733 0.016788041 -0.058960766 0.12576549 -0.029917309 0.076939896 -0.0031654355 -0.1957086 0.0076429504 -0.0021812238 0.08294098 0.17177828 0.093911305 0.100571424 -0.10907219 -0.09926783 0.03670898 -0.017007727 0.15290053 0.029516831 0.08219439 -0.10472913 0.0092912465 0.021247076 -0.060465503 0.04553352 -0.07360154 0.06437051 -0.11422445 -0.09077188 -0.041869536 0.013866347 -0.122429654 0.034739915 0.08523516 0.1436481 0.08111487 0.03758571 -0.15277027 0.0039258585 0.055148005 -0.040291917 -0.20652895 0.14157067 -0.11405048 0.15466264 0.012381331 -0.18331166 -0.10580428 -0.14740698 -0.08689729 -0.041895974 0.081714645 -0.07943331 0.119612955 -0.13858882 -0.09336331 -0.123009935 -0.14383833 -0.08730952 -0.14776462 -0.15859152 -0.090896815 0.12637195 0.05020888 0.09786873 -0.15531869 -0.046309873 -0.0018646282 0.027395688 -0.04414786 -0.056375694 -0.045319587 -0.01971602 -0.007099686 -0.15906294 -0.08749138 0.123086214 0.092147894 -0.100880206 0.031936422 -0.037992083
paris -0.0142694125 -0.004474368 -0.003616261 -0.042118657 -0.034644842 -0.0681849 0.044934835 -0.024546517 0.054470588 -0.039655603 0.0065629315 0.017062722 0.08498723 -0.017222002 0.055300992 -0.054960165 -0.058450714 -0.040518355 -0.04214144 -0.026515784 -0.022402013 -0.025104817 -0.0748931 -0.03262932 0.05859876 0.027397573 -0.09006409 0.0105922995 0.044768244 0.013344808 0.030545667 0.04920335 0.013231494 0.0110044945 -0.006743541 -0.089070134 -0.0047120955 -0.09089275 0.06366707 -0.005903278 0.022027727 0.008684818 -0.013728302 0.028559875 0.06637669 0.0053981747 -0.054623906 -0.007997702 -0.092546046 0.046469286 0.018255392 0.054020703 0.06803007 0.0007334236 0.012962786 0.076412305 -0.0210671 0.045852542 -0.051185425 -0.06773212 0.012977851 0.10085625 -0.07446546 -0.004419123 0.0019744602 -0.09853561 0.025650766 -0.05046575 -0.02607217 -0.028435761 0.07108176 -0.018621923 -0.001429287 -0.057101723 -0.031992443 0.0024808552 -0.057136368 0.011877747 -0.025802188 -0.07745749 0.016258158 -0.044807002 0.08892164 0.050343372 -0.06682822 0.03136306 -0.029307485 0.04774054 -0.040948328 0.05232667 -0.08892059 0.04599314 -0.0252688 -0.05807397 0.014811635 0.00015785568 0.031362742 -0.058840852 0.026870294 0.08089056
barrowful -0.07731774 0.109478034 -0.0011089321 0.03301495 -0.09471318 -0.05400805 0.055131942 0.042769756 0.036222212 0.015047359 0.044976383 0.09442047 0.0034898731 0.1087069 0.0042435294 -0.035859756 -0.084391385 -0.122219704 -0.065182455 -0.069915794 -0.0021288958 0.026943253 -0.03278588 0.007725442 0.061307434 -0.055107094 -0.010354368 -0.021391746 -0.010765934 0.09134246 0.058002245 0.072648235 -0.05201494 -0.050011292 0.019276826 -0.034414615 -0.04118413 0.076518305 0.06986011 -0.06352426 0.08497202 -0.010230661 -0.08879442 0.047738764 0.030324768 0.11268598 -0.044888772 0.00019192122 -0.1148266 0.09221875 -0.079729795 0.03655448 0.06855179 0.0059968517 -0.032294624 0.103781685 -0.037180193 -0.016738605 -0.020758552 -0.046883635 0.050018057 0.12511943 0.00261141 0.02331328 0.026169851 -0.11161366 -0.06257632 -0.079121545 -0.10675584 0.021019693 0.05041548 0.0032056908 0.009809017 -0.12070217 -0.07314108 -0.049908426 -0.04769301 -0.085296944 -0.05872611 -0.025693165 -0.0201133 0.080887385 0.08182637 -0.07303214 -0.04531715 -0.011994057 -0.06434927 0.0481186 -0.032784007 0.001834705 -0.034725536 0.05056211 -0.074676245 -0.0765126 -0.029785644 0.054247174 0.119358346 0.0068764277 0.07819312 -0.02338413
smoke 0.00926853 0.047001336 -0.0058962135 0.03711147 -0.00610869 -0.0034603365 -0.0011312438 -0.03658993 -0.024357865 0.027538225 0.020977652 0.009861443 -0.014749982 0.015563115 0.024940478 0.031106154 -0.028059212 -0.008647021 -0.010004648 0.014527393 0.017106641 -0.0026331255 -0.011373447 -0.01895923 0.025629666 -0.014501876 -0.03635985 -0.027111243 0.0020760528 -0.01737486 0.016911466 0.013547592 -0.030396737 0.015312377 0.024626194 0.02100271 -0.015990997 0.017235192 0.071657434 -0.007325048 0.04438358 0.009287147 0.021448825 0.022514116 -0.030955235 0.016123267 -0.010382501 0.030576795 0.00468902 0.02877805 -0.015366721 0.058624253 0.031351503 -0.017567063 -0.047570836 -0.014876807 -0.039022144 0.052387644 0.018070871 0.025522972 0.04828137 0.0048069865 -0.008933557 0.01002408 -0.013300829 -0.02682278 -0.041546676 -0.00248364 0.02497825 0.032077856 0.009374547 0.04347682 0.007971482 -0.055472434 0.0072747837 -0.04257984 -0.040148944 -0.0017638059 0.0047553433 0.035959616 -0.025410337 -0.00091819 -0.008551452 -0.009440961 0.058364782 0.036856852 -0.008624417 0.014653552 0.036050674 0.01602858 -0.014824656 -0.012966355 -0.06308828 -0.05265325 0.0025111237 -0.0048567243 0.044231087 0.005404703 0.040414564 0.00032615996
changes -0.07244631 0.079867795 -0.0030317765 0.105099514 0.031059666 -0.063123904 -0.015817443 -0.05430724 0.09017741 0.030365668 0.032457843 0.077965006 0.005561052 0.037630323 0.07428472 -0.07725462 -0.12195771 -0.08183859 -0.03439519 -0.05146034 -0.007479209 0.041261446 -0.016662482 0.037320115 0.055932257 -0.028351344 -0.018896172 -0.009157417 -0.022530517 0.033552002 0.08952266 0.06521754 -0.01580147 -0.06238254 -0.017357431 -0.077226035 0.068217 -0.011008795 0.075647764 -0.08115621 0.041716464 -0.061985143 -0.033991415 0.019099396 -0.060491227 0.071935214 -0.07826699 -0.087053776 -0.010386891 0.045512203 -0.028335482 0.10187063 0.05752235 0.06304214 0.01889119 0.08211336 -0.09514402 0.023241296 0.028554577 -0.0154671585 0.012852564 0.042565115 -0.012193429 0.09772957 -0.00082104973 -0.08333436 -0.09065527 -0.052280627 -0.017377948 -0.07457531 0.01759406 -0.08789137 0.084747314 -0.0510009 0.0060979 -0.068858296 -0.0410254 0.0029135775 -0.06570601 -0.01623303 -0.099311575 0.012959463 0.02962822 0.05554264 -0.027724285 -0.0062225144 -0.043681208 0.054017242 -0.05292767 -0.016989307 -0.085727684 0.015516117 -0.013314251 -0.09734792 -0.016965566 0.08671684 0.04902935 -0.09425892 0.030517297 0.03478103
ventured -0.069042675 0.061008327 -0.056560583 0.13048413 0.0016501255 -0.11169244 0.020521399 -0.04013254 -0.038348824 0.009562952 0.06608978 0.063606724 0.007571334 0.16096276 0.05172219 0.027521567 -0.15111898 -0.053809285 -0.078836985 0.035315644 -0.014423767 0.091757305 -0.08980986 0.03350347 0.0966851 -0.059807036 -0.054711696 0.110445365 -0.015357635 0.11628976 0.086744085 0.16937494 -0.09888853 -0.1075247 0.018740147 -0.056849793 -0.022381034 0.10962862 0.12711531 -0.12313213 0.0674399 -0.15457264 -0.08893433 0.035218596 -0.13647199 0.060197484 -0.057658736 -0.050413746 -0.07295153 0.01709178 -0.033992376 0.07861633 0.050940033 0.12815566 -0.023360757 -0.021925094 -0.09295724 -0.08736057 0.028078746 -0.05071608 0.11011854 0.085112184 -0.013966328 0.11500853 0.12882963 -0.12970188 -0.052279178 -0.06803745 -0.017713841 -0.009650969 0.109439865 -0.16957773 0.083411135 0.012896767 -0.107649304 -0.11473089 -0.14338902 -0.13228625 -0.08981726 -0.07473378 -0.06016758 0.09755684 0.032393064 0.014131379 -0.14590445 -0.03821866 -0.10352788 0.11481993 -0.0451987 0.044086393 -0.10630219 0.051365126 -0.10229095 -0.102112375 0.07597184 0.013678053 0.101462014 -0.006886499 0.08453088 0.05406266
golden -0.09891032 0.15376018 0.05778037 -0.03676927 -0.058586467 -0.0049437303 -0.012783511 -0.13203484 0.09996886 -0.13275284 0.09152761 0.04260649 0.1601807 0.0653218 0.17047463 -0.080274455 -0.003666164 -0.05209547 0.02422697 -0.19226305 -0.058804978 -0.1122976 -0.0396855 0.04495597 0.10482286 -0.055818986 -0.10435303 0.0995937 0.11836565 0.100871995 0.032438546 0.13498601 -0.14446299 -0.13765568 -0.15905909 -0.098134734 -0.06501951 0.009889276 0.063057356 -0.017322239 0.056704417 -0.031098913 -0.065914474 0.10382266 0.017786536 0.04313661 0.0007977432 -0.09158257 -0.034526102 0.015018556 0.011892333 0.0839481 0.061285637 0.015531716 0.032727476 0.026855148 -0.20505257 0.09964188 -0.11933187 -0.082554266 0.041521374 -0.010891608 -0.040076446 -0.034413446 0.20413238 -0.15395772 -0.073541425 0.013519704 -0.0034702872 -0.1005331 0.11154549 -0.072757095 0.06543998 -0.09806021 -0.06415737 0.079301775 -0.10151607 -0.054359753 -0.10886588 -0.06259146 -0.0106976675 -0.1333747 0.07435788 0.07865529 -0.06384516 0.12884225 -0.03998517 0.14627089 -0.09297927 0.09141584 -0.13491948 -0.0046971887 -0.07282046 -0.014474603 0.0986535 0.043020725 0.0100536235 -0.038763467 0.09341509 0.13610524
geography -0.034372173 0.032292042 -0.025485294 -0.013847361 -0.009694222 -0.004863001 0.035793025 -0.043088622 0.025256885 -0.062076252 -0.022309374 0.04570626 0.050431367 0.043328058 0.0028530387 -0.029581277 0.029151175 0.009741103 -0.035332646 -0.020317053 -0.014395081 0.034827054 0.027276948 0.026529431 -0.014687452 0.013220713 -0.020238407 -0.017908525 0.012728868 0.048887946 -0.0022231028 -0.016091302 -0.0025615369 0.027561465 -0.037052915 -0.01927776 0.008696245 -0.039881673 0.033335105 -0.032768518 -0.020852594 -0.0019363167 -0.014757556 0.0015905856 -0.0549048 -0.014198849 -0.026497338 -0.030455356 0.0036885934 0.014480209 0.024238884 0.016072804 0.03216506 0.0005931473 0.009410846 -0.029356485 -0.040010776 0.030764326 -0.02385541 -0.02799044 -0.018193007 -0.01616012 -0.003615241 0.01042286 -0.021957597 0.035911314 -0.004264993 -0.05632448 -0.00888818 -0.027761068 -0.0030685533 -0.010592886 0.0066150986 0.021841254 -0.022169074 0.028004963 0.023522703 0.024948724 -0.04679753 0.040402193 0.039794836 -0.0043957243 -0.0021609785 -0.035095062 0.018583097 0.012226357 -0.037423257 0.018087698 0.019217832 0.0008895128 -0.036680777 -0.017895732 -0.032612544 0.05258554 0.013341737 0.006035667 0.007867254 -0.0021648435 0.021574017 0.009121211
explained -0.055038773 0.07307042 0.029318338 0.06297659 -0.0047067925 -0.0017379022 -0.022128595 -0.051016316 -0.012262424 0.01569877 0.06473868 -0.012060613 -0.035023477 0.026340727 0.013440752 -0.08181955 -0.03431076 -0.002019594 -0.007355655 -0.0065672933 -0.043472756 -0.0064795 0.0075134714 0.027937654 0.015414786 -0.112643205 -0.021685544 0.07817782 0.090237096 0.08130127 0.04698877 0.036050636 -0.07603712 -0.03292097 0.05825705 -0.08512441 -0.0067436714 -0.0026975905 0.046058577 -0.020099752 0.0235493 -0.075527765 0.0002920329 0.061939795 -0.06770809 0.034321554 -0.061638024 -0.01873824 -0.036730852 -0.013671234 -0.028468125 -0.011238051 0.04862616 -0.013403883 -0.002597271 0.104601495 -0.040073227 -0.027780456 0.057179436 -0.038665127 0.019942079 0.034887698 -0.021307178 0.032603603 0.078613035 -0.08186145 -0.035355452 -0.034186117 -0.10944811 -0.06332097 0.058411293 0.013073752 0.04813496 -0.016487144 -0.09410575 -0.021866934 -0.06757127 -0.0060643647 0.00073377695 0.003191642 -0.012816145 -0.014813251 0.033163108 0.018654477 -0.030949906 0.033448137 -0.073071234 0.06847169 -0.045160156 0.0890454 -0.007228682 0.029502401 -0.07068673 -0.07728696 0.0765462 0.05410507 0.047490675 -0.06398229 0.03104802 0.029909479
angrily -0.09955018 0.050668567 -0.09507595 0.08873962 0.0676435 -0.10609418 -0.021519648 -0.13030247 0.11972916 -0.07845004 0.14444177 0.09594096 0.08150441 0.0731828 0.17033802 -0.1058173 -0.059884127 0.016476873 -0.120654665 -0.047616303 -0.10905201 0.09917637 -0.13411663 0.15590599 0.031322487 -0.08613848 0.004602923 0.13243866 0.09691714 0.10615964 0.11647705 0.052679528 -0.101883836 -0.14490286 0.09080574 -0.16719918 0.082941115 0.08497355 0.15551685 -0.021251088 0.10207257 -0.056605212 -0.104889564 0.07084748 -0.091812246 0.087130345 -0.1038144 -0.09273515 -0.015894203 0.1285914 -0.05609674 0.08847973 0.07471761 0.08307132 0.08812456 0.0007485384 -0.104445085 -0.03246611 0.07296244 -0.13997899 -0.014320244 0.181673 -0.07231671 0.08942613 0.07773264 -0.10071041 -0.13402252 -0.057962757 -0.045790676 -0.12472837 0.14259812 -0.09146422 0.016555198 -0.11002674 -0.10011816 -0.02781947 -0.06310248 -0.0019379662 -0.15778963 -0.113653146 -0.060385447 -0.033219963 0.034610264 -0.0094343275 -0.13807306 0.017628176 -0.09545685 0.11431128 -0.06678758 0.09464391 -0.045774437 -0.114773065 -0.10563394 -0.059365932 0.06539872 0.06446816 0.0734585 -0.024123268 0.054913513 0.12909281
feelings 0.022448163 -0.021164026 -0.051620916 0.046148065 0.02850271 -0.021238174 -0.028376581 0.008296691 0.039464682 -0.026917087 0.056580458 0.06533422 -0.0047218576 0.057895105 -0.012751901 0.0049588056 -0.038933884 -0.070439555 -0.107026614 0.003049801 -0.023036057 0.08335388 -0.01882366 -0.0074664904 0.04875424 -0.05004175 -0.009444395 -0.012954466 0.04098699 0.073233314 0.05542223 0.013839747 0.0044051893 -0.06973211 -0.016556773 -0.048517194 0.047225602 -0.03177188 0.035895824 -0.06768389 0.067022204 -0.07946956 -0.03150483 0.015459703 -0.10215492 0.06638124 -0.016061304 -0.037057385 -0.0072053354 0.08866809 -0.0014183538 0.057823773 -0.015676845 0.047088016 0.01604975 0.014705645 -0.0055586905 -0.031107375 0.008352744 -0.027363382 0.0009699724 0.03709054 -0.037691053 0.05345021 0.008841179 0.013645888 -0.03971299 -0.0034148465 -0.06312835 -0.032803856 0.06985886 -0.003976596 0.051600307 -0.08747026 -0.04768606 -0.03380676 -0.06828898 -0.053046644 -0.03048442 0.013988286 -0.030309834 0.03506155 -0.03803582 -0.010368274 -0.08517913 -0.041474693 -0.0005185658 -0.023971353 -0.06108299 -0.023569856 -0.026713569 -0.040183704 -0.08492897 -0.044883277 -0.080469266 0.06565341 0.011362056 -0.0808427 -0.00832188 0.005701974
brought -0.050291047 0.079409435 -0.01208911 0.0944237 0.030700155 -0.06414412 0.063532956 -0.14103384 0.019564267 -0.036274 0.09940966 0.029092897 0.079067335 0.095563255 0.07639189 0.011705143 -0.06253207 -0.04403777 -0.020775823 -0.015262608 0.025827985 0.01058786 0.033059206 0.028492616 -0.00096546585 -0.035408065 -0.046096284 0.070711106 0.065982156 0.033771485 0.07366962 0.036455758 -0.080565244 -0.012084729 0.072117336 -0.06677824 -0.04696988 0.06353191 0.08274563 -0.090636685 0.058412082 -0.055498734 -0.047223 0.007377007 -0.09293165 0.053137608 -0.015058277 -0.07086098 -0.039489266 0.096283205 -0.061952353 0.082914785 -0.011741518 0.038119424 0.090035774 0.091003925 -0.0011002352 0.04091527 -0.048107326 -0.07753476 0.0034223655 0.097400434 -0.0020157027 0.048756726 0.043627236 -0.043150026 -0.023221362 -0.015888227 -0.028175736 -0.049442515 0.04317823 -0.10023124 0.10567572 -0.06449159 -0.05780846 -0.05862265 -0.028065545 -0.08215273 -0.08949615 -0.059552025 -0.13458928 0.020041374 0.051551312 0.07268436 -0.0471643 0.10191628 -0.08162582 0.048816495 -0.02491275 0.034162443 -0.06638377 0.0005102486 -0.051569246 -0.0071994425 0.013483208 -0.019033976 0.079077356 -0.010869559 0.032085873 0.07042019
patience 0.013140287 0.07258418 0.006953134 -0.047297195 0.04741095 -0.034883812 0.01860988 0.02523313 -0.00889146 -0.0218567 0.053153336 0.081275076 0.013827743 0.06473589 0.023026057 0.008795972 0.0030847918 -0.041486584 0.022321872 -0.07822982 0.0152760185 -0.06884489 -0.042950157 0.06604204 0.030870117 -0.07693735 -0.030769868 0.0081936605 -0.0014300839 0.018675424 0.042854875 0.07808564 -0.05384631 -0.04892938 0.003280146 -0.010984007 0.021781862 -0.03668818 0.054979943 0.0037494844 0.061998684 0.0020660348 -0.07604122 -0.017448384 -0.0271983 0.027451811 -0.070126824 0.0025053488 -0.022242663 0.017411841 -0.054376338 0.021318952 0.036657184 -0.07591824 0.0115716765 0.027318789 0.013863811 0.063401505 0.034811456 0.0041336394 0.001122323 0.06781207 -0.04959246 0.041475788 -0.019638803 -0.03488675 -0.07009698 0.0394082 -0.038256176 0.042313866 -0.0151950745 -0.017607385 -0.0060719415 -0.00028650137 -0.08518869 0.020226713 -0.012151269 0.024983272 -0.018412983 -0.010024125 -0.008633822 -0.056206748 0.039855383 -0.05235093 0.030293196 0.05605977 -0.0038806996 0.041610613 -0.06951212 -0.026065161 -0.041433077 0.03737955 -0.03772733 -0.08151295 -0.01079936 0.07629552 0.05679756 0.019389939 0.052561775 0.05383422
moral -0.2011373 0.07101041 0.044444427 0.009322939 -0.17789039 -0.18636489 -0.013765922 -0.035446383 0.1732499 -0.036926076 0.015895158 0.1498268 0.12898125 0.085164614 0.2060815 -0.12950116 -0.1446413 -0.13247062 -0.08938342 -0.1920688 -0.088636495 0.0014744044 -0.16913737 0.09310324 0.11867686 -0.04699709 -0.19388841 0.18060862 0.07259171 0.07209171 0.11030301 0.12732656 -0.13883145 -0.12285151 0.008428306 -0.17928739 -0.04760364 -0.075083025 0.2030248 -0.07878983 0.16140014 -0.09755938 -0.18153808 0.11861401 0.006038906 0.17729644 -0.14165108 -0.19818345 -0.06950797 0.029989157 -0.11010764 0.09743082 0.127424 0.0062886304 0.032292105 0.17759193 -0.06752135 0.20129125 0.10064731 -0.16183299 0.09958276 0.24216892 -0.15100938 -0.059197426 0.16960165 -0.24391411 -0.092895284 -0.015574703 -0.03332256 -0.029668551 0.13885741 -0.093050584 0.09927695 -0.19332705 -0.19213067 -0.17454162 -0.1873623 -0.10347589 -0.11868479 -0.14750792 -0.13617347 -0.018195339 0.23699495 0.11128861 -0.08112433 0.096316904 -0.1783462 0.13110656 -0.13377666 -0.051271968 -0.13412094 0.067630984 -0.12120753 -0.1758412 0.14854573 0.22551695 0.19568336 -0.026929295 0.2013514 0.1698196
guests 0.02117999 0.06422622 0.07923263 -0.00773599 -0.02428193 -0.06991855 0.003803657 -0.022426309 0.026398676 -0.04965353 0.06343977 -0.012414309 0.050847817 0.06169597 0.02780875 -0.052004237 -0.056469146 0.02451545 0.060268696 -0.07184257 -0.022717908 0.008020197 -0.028424907 0.062413022 0.04686295 -0.02217761 0.005726075 -0.010404371 0.0054448387 0.027834024 0.075311765 0.06975755 -0.03385931 -0.032513287 -0.0032607322 -0.07549225 -0.062371094 -0.038637444 0.024597272 -0.025328347 0.018786697 -0.034312945 0.006865134 -0.022243164 0.059323683 -0.011049038 -0.059209887 -0.018404555 -0.005687504 -0.010567737 -0.035869136 0.036391594 -0.011330422 -0.012963061 0.0072864173 0.036236484 -0.060378972 0.070687845 0.021396248 0.02671976 0.005506512 0.034633532 -0.0072905123 0.036187258 0.027621644 -0.05106943 -0.013233038 -0.0022535736 -0.071203426 -0.004810954 0.018325564 -0.017419554 -0.0034064602 -0.08025716 -0.0011744667 0.07335072 -0.04824124 -0.031265784 0.0034996364 -0.030810656 -0.08979818 -0.0037707887 0.059474997 -0.048693214 0.010058641 0.013740005 -0.031682394 0.022075366 -0.055236686 0.008125067 -0.06368789 -0.01877998 -0.027309308 -0.033769764 0.019723473 0.01810511 -0.0016643867 -0.057616446 0.07650144 0.017499495
drowned 0.005622305 0.054105762 -0.034069374 0.0446601 -0.045273587 0.005922719 0.051012643 -0.05239741 -0.02581957 -0.027598895 -0.010088447 -0.0047022263 -0.01985464 0.00022136577 0.01520053 -0.0023809967 -0.009733529 -0.039462198 0.022043573 0.02162789 -0.029919438 -0.01832632 -0.034516968 -0.03530093 0.01129563 0.012595703 -0.008500459 0.06675491 0.04809686 -0.010494541 0.0190412 -0.012750255 -0.012687778 -0.051091537 -0.061452214 -0.024670962 0.029682217 -0.020728033 0.050603494 -0.0404158 0.028670654 -0.056221087 -0.026360271 -0.012243261 -0.021152254 0.018444976 0.0020281759 -0.06868306 -0.031441055 -0.0151954265 0.01659948 -0.0034139259 0.045156512 -0.028045002 -0.010368589 0.014694157 -0.034380723 0.041640397 0.0519616 -0.06000324 0.010156457 -0.015420917 -0.014359955 -0.018640293 0.030398505 -0.031143162 0.00617499 -0.011413341 -0.073476054 -0.024814682 -0.010853812 -0.005333973 0.028965235 -0.03534149 -0.03198365 -0.043551482 -0.07540544 -0.0341858 -0.04909647 -0.05622454 -0.04344474 0.011558333 0.025951097 0.002711509 -0.014485323 0.02812181 0.008451972 0.03360735 0.01804052 0.014791052 0.01618484 0.04726797 0.02143978 0.0018443211 0.017886579 0.027026398 0.013262035 0.013752324 0.040991757 -0.021107087
